<?xml version="1.0" encoding="ISO-8859-1"?>
<!-- This network was created in GeNIe Academic, which can be used for educational and research purposes only -->
<smile version="1.0" id="Network1" numsamples="10000" discsamples="10000">
	<nodes>
		<cpt id="O11S">
			<state id="State0" />
			<state id="State1" />
			<probabilities>0.5 0.5</probabilities>
		</cpt>
		<cpt id="O12S">
			<state id="State0" />
			<state id="State1" />
			<probabilities>0.5 0.5</probabilities>
		</cpt>
		<cpt id="O13S">
			<state id="State0" />
			<state id="State1" />
			<probabilities>0.5 0.5</probabilities>
		</cpt>
		<decision id="O11C">
			<state id="Check" />
			<state id="Uncheck" />
		</decision>
		<decision id="W14C">
			<state id="Check" />
			<state id="Uncheck" />
		</decision>
		<cpt id="W14S">
			<state id="State0" />
			<state id="State1" />
			<probabilities>0.5 0.5</probabilities>
		</cpt>
		<cpt id="W14">
			<state id="True" />
			<state id="False" />
			<parents>W14C W14S</parents>
			<probabilities>0.99 0.01 0.86087 0.13913 0.12913 0.87087 0.0 1.0</probabilities>
		</cpt>
		<cpt id="O11">
			<state id="True" />
			<state id="False" />
			<parents>O11C O11S W14</parents>
			<probabilities>0.99 0.01 0.573158 0.426842 0.833684 0.166316 0.416842 0.583158 0.573158 0.426842 0.156316 0.843684 0.416842 0.583158 0.0 1.0</probabilities>
		</cpt>
		<decision id="O12C">
			<state id="Check" />
			<state id="Uncheck" />
		</decision>
		<cpt id="S12S">
			<state id="State0" />
			<state id="State1" />
			<probabilities>0.5 0.5</probabilities>
		</cpt>
		<decision id="S12C">
			<state id="Check" />
			<state id="Uncheck" />
		</decision>
		<cpt id="S11S">
			<state id="State0" />
			<state id="State1" />
			<probabilities>0.5 0.5</probabilities>
		</cpt>
		<decision id="S11C">
			<state id="Check" />
			<state id="Uncheck" />
		</decision>
		<cpt id="S11">
			<state id="True" />
			<state id="False" />
			<parents>S11C S11S W14</parents>
			<probabilities>0.99 0.01 0.573158 0.426842 0.833684 0.166316 0.416842 0.583158 0.573158 0.426842 0.156316 0.843684 0.416842 0.583158 0.0 1.0</probabilities>
		</cpt>
		<cpt id="S12">
			<state id="True" />
			<state id="False" />
			<parents>S12C S12S S11</parents>
			<probabilities>0.99 0.01 0.777857 0.222143 0.777857 0.222143 0.565714 0.434286 0.424286 0.575714 0.212143 0.787857 0.212143 0.787857 0.0 1.0</probabilities>
		</cpt>
		<cpt id="O12">
			<state id="True" />
			<state id="False" />
			<parents>O12C O12S S12 O11</parents>
			<probabilities>0.99 0.01 0.559565 0.440435 0.925435 0.074565 0.495 0.505 0.925435 0.074565 0.495 0.505 0.86087 0.13913 0.430435 0.569565 0.559565 0.440435 0.12913 0.87087 0.495 0.505 0.064565 0.935435 0.495 0.505 0.064565 0.935435 0.430435 0.569565 0.0 1.0</probabilities>
		</cpt>
		<decision id="O13C">
			<state id="Check" />
			<state id="Uncheck" />
		</decision>
		<cpt id="O13">
			<state id="True" />
			<state id="False" />
			<parents>O13C O13S O12 S11</parents>
			<probabilities>0.99 0.01 0.482308 0.517692 0.786923 0.213077 0.279231 0.720769 0.913846 0.086154 0.406154 0.593846 0.710769 0.289231 0.203077 0.796923 0.786923 0.213077 0.279231 0.720769 0.583846 0.416154 0.076154 0.923846 0.710769 0.289231 0.203077 0.796923 0.507692 0.492308 0.0 1.0</probabilities>
		</cpt>
		<cpt id="O21S">
			<state id="State0" />
			<state id="State1" />
			<probabilities>0.5 0.5</probabilities>
		</cpt>
		<cpt id="O23S">
			<state id="State0" />
			<state id="State1" />
			<probabilities>0.5 0.5</probabilities>
		</cpt>
		<decision id="O21C">
			<state id="Check" />
			<state id="Uncheck" />
		</decision>
		<cpt id="O1">
			<state id="State0" />
			<state id="State1" />
			<parents>O11 O12 O13</parents>
			<probabilities>1.0 0.0 0.666667 0.333333 0.666667 0.333333 0.333333 0.666667 0.666667 0.333333 0.333333 0.666667 0.333333 0.666667 0.0 1.0</probabilities>
		</cpt>
		<cpt id="O21">
			<state id="True" />
			<state id="False" />
			<parents>O21C O21S O1</parents>
			<probabilities>0.99 0.01 0.734516 0.265484 0.894194 0.105806 0.63871 0.36129 0.35129 0.64871 0.095806 0.904194 0.255484 0.744516 0.0 1.0</probabilities>
		</cpt>
		<cpt id="O22S">
			<state id="State0" />
			<state id="State1" />
			<probabilities>0.5 0.5</probabilities>
		</cpt>
		<decision id="O22C">
			<state id="Check" />
			<state id="Uncheck" />
		</decision>
		<cpt id="O22">
			<state id="True" />
			<state id="False" />
			<parents>O22C O22S O1</parents>
			<probabilities>0.99 0.01 0.35129 0.64871 0.894194 0.105806 0.255484 0.744516 0.734516 0.265484 0.095806 0.904194 0.63871 0.36129 0.0 1.0</probabilities>
		</cpt>
		<decision id="O23C">
			<state id="Check" />
			<state id="Uncheck" />
		</decision>
		<cpt id="O23">
			<state id="True" />
			<state id="False" />
			<parents>O23C O23S O22</parents>
			<probabilities>0.99 0.01 0.573158 0.426842 0.833684 0.166316 0.416842 0.583158 0.573158 0.426842 0.156316 0.843684 0.416842 0.583158 0.0 1.0</probabilities>
		</cpt>
		<cpt id="S13S">
			<state id="State0" />
			<state id="State1" />
			<probabilities>0.5 0.5</probabilities>
		</cpt>
		<decision id="S13C">
			<state id="Check" />
			<state id="Uncheck" />
		</decision>
		<cpt id="S13">
			<state id="True" />
			<state id="False" />
			<parents>S13C S13S S12</parents>
			<probabilities>0.99 0.01 0.35129 0.64871 0.894194 0.105806 0.255484 0.744516 0.734516 0.265484 0.095806 0.904194 0.63871 0.36129 0.0 1.0</probabilities>
		</cpt>
		<cpt id="O24S">
			<state id="State0" />
			<state id="State1" />
			<probabilities>0.5 0.5</probabilities>
		</cpt>
		<decision id="O24C">
			<state id="Check" />
			<state id="Uncheck" />
		</decision>
		<cpt id="O24">
			<state id="True" />
			<state id="False" />
			<parents>O24C O24S O23 S12 S13</parents>
			<probabilities>0.99 0.01 0.751446 0.248554 0.751446 0.248554 0.512892 0.487108 0.751446 0.248554 0.512892 0.487108 0.512892 0.487108 0.274337 0.725663 0.954217 0.045783 0.715663 0.284337 0.715663 0.284337 0.477108 0.522892 0.715663 0.284337 0.477108 0.522892 0.477108 0.522892 0.238554 0.761446 0.751446 0.248554 0.512892 0.487108 0.512892 0.487108 0.274337 0.725663 0.512892 0.487108 0.274337 0.725663 0.274337 0.725663 0.035783 0.964217 0.715663 0.284337 0.477108 0.522892 0.477108 0.522892 0.238554 0.761446 0.477108 0.522892 0.238554 0.761446 0.238554 0.761446 0.0 1.0</probabilities>
		</cpt>
		<cpt id="O25S">
			<state id="State0" />
			<state id="State1" />
			<probabilities>0.5 0.5</probabilities>
		</cpt>
		<decision id="O25C">
			<state id="Check" />
			<state id="Uncheck" />
		</decision>
		<cpt id="O25">
			<state id="True" />
			<state id="False" />
			<parents>O25C O25S O24 O21 S12 W14</parents>
			<probabilities>0.99 0.01 0.946957 0.053043 0.946957 0.053043 0.903913 0.096087 0.703043 0.296957 0.66 0.34 0.66 0.34 0.616957 0.383043 0.703043 0.296957 0.66 0.34 0.66 0.34 0.616957 0.383043 0.416087 0.583913 0.373043 0.626957 0.373043 0.626957 0.33 0.67 0.946957 0.053043 0.903913 0.096087 0.903913 0.096087 0.86087 0.13913 0.66 0.34 0.616957 0.383043 0.616957 0.383043 0.573913 0.426087 0.66 0.34 0.616957 0.383043 0.616957 0.383043 0.573913 0.426087 0.373043 0.626957 0.33 0.67 0.33 0.67 0.286957 0.713043 0.703043 0.296957 0.66 0.34 0.66 0.34 0.616957 0.383043 0.416087 0.583913 0.373043 0.626957 0.373043 0.626957 0.33 0.67 0.416087 0.583913 0.373043 0.626957 0.373043 0.626957 0.33 0.67 0.12913 0.87087 0.086087 0.913913 0.086087 0.913913 0.043043 0.956957 0.66 0.34 0.616957 0.383043 0.616957 0.383043 0.573913 0.426087 0.373043 0.626957 0.33 0.67 0.33 0.67 0.286957 0.713043 0.373043 0.626957 0.33 0.67 0.33 0.67 0.286957 0.713043 0.086087 0.913913 0.043043 0.956957 0.043043 0.956957 0.0 1.0</probabilities>
		</cpt>
		<cpt id="S21S">
			<state id="State0" />
			<state id="State1" />
			<probabilities>0.5 0.5</probabilities>
		</cpt>
		<cpt id="S23S">
			<state id="State0" />
			<state id="State1" />
			<probabilities>0.5 0.5</probabilities>
		</cpt>
		<decision id="S21C">
			<state id="Check" />
			<state id="Uncheck" />
		</decision>
		<cpt id="S1">
			<state id="True" />
			<state id="False" />
			<parents>S11 S12 S13</parents>
			<probabilities>1.0 0.0 0.666667 0.333333 0.666667 0.333333 0.333333 0.666667 0.666667 0.333333 0.333333 0.666667 0.333333 0.666667 0.0 1.0</probabilities>
		</cpt>
		<cpt id="O31S">
			<state id="State0" />
			<state id="State1" />
			<probabilities>0.5 0.5</probabilities>
		</cpt>
		<decision id="O31C">
			<state id="Check" />
			<state id="Uncheck" />
		</decision>
		<cpt id="O31">
			<state id="True" />
			<state id="False" />
			<parents>O31C O31S O1 O23</parents>
			<probabilities>0.99 0.01 0.902647 0.097353 0.407647 0.592353 0.320294 0.679706 0.902647 0.097353 0.815294 0.184706 0.320294 0.679706 0.232941 0.767059 0.757059 0.242941 0.669706 0.330294 0.174706 0.825294 0.087353 0.912647 0.669706 0.330294 0.582353 0.417647 0.087353 0.912647 0.0 1.0</probabilities>
		</cpt>
		<cpt id="O32S">
			<state id="State0" />
			<state id="State1" />
			<probabilities>0.5 0.5</probabilities>
		</cpt>
		<decision id="O32C">
			<state id="Check" />
			<state id="Uncheck" />
		</decision>
		<cpt id="O32">
			<state id="True" />
			<state id="False" />
			<parents>O32C O32S O23 O31 S1 O24 O25</parents>
			<probabilities>0.99 0.01 0.779362 0.220638 0.958404 0.041596 0.747766 0.252234 0.779362 0.220638 0.568723 0.431277 0.747766 0.252234 0.537128 0.462872 0.779362 0.220638 0.568723 0.431277 0.747766 0.252234 0.537128 0.462872 0.568723 0.431277 0.358085 0.641915 0.537128 0.462872 0.326489 0.673511 0.779362 0.220638 0.568723 0.431277 0.747766 0.252234 0.537128 0.462872 0.568723 0.431277 0.358085 0.641915 0.537128 0.462872 0.326489 0.673511 0.568723 0.431277 0.358085 0.641915 0.537128 0.462872 0.326489 0.673511 0.358085 0.641915 0.147447 0.852553 0.326489 0.673511 0.115851 0.884149 0.958404 0.041596 0.747766 0.252234 0.926809 0.073191 0.71617 0.28383 0.747766 0.252234 0.537128 0.462872 0.71617 0.28383 0.505532 0.494468 0.747766 0.252234 0.537128 0.462872 0.71617 0.28383 0.505532 0.494468 0.537128 0.462872 0.326489 0.673511 0.505532 0.494468 0.294894 0.705106 0.747766 0.252234 0.537128 0.462872 0.71617 0.28383 0.505532 0.494468 0.537128 0.462872 0.326489 0.673511 0.505532 0.494468 0.294894 0.705106 0.537128 0.462872 0.326489 0.673511 0.505532 0.494468 0.294894 0.705106 0.326489 0.673511 0.115851 0.884149 0.294894 0.705106 0.084255 0.915745 0.905745 0.094255 0.695106 0.304894 0.874149 0.125851 0.663511 0.336489 0.695106 0.304894 0.484468 0.515532 0.663511 0.336489 0.452872 0.547128 0.695106 0.304894 0.484468 0.515532 0.663511 0.336489 0.452872 0.547128 0.484468 0.515532 0.27383 0.72617 0.452872 0.547128 0.242234 0.757766 0.695106 0.304894 0.484468 0.515532 0.663511 0.336489 0.452872 0.547128 0.484468 0.515532 0.27383 0.72617 0.452872 0.547128 0.242234 0.757766 0.484468 0.515532 0.27383 0.72617 0.452872 0.547128 0.242234 0.757766 0.27383 0.72617 0.063191 0.936809 0.242234 0.757766 0.031596 0.968404 0.874149 0.125851 0.663511 0.336489 0.842553 0.157447 0.631915 0.368085 0.663511 0.336489 0.452872 0.547128 0.631915 0.368085 0.421277 0.578723 0.663511 0.336489 0.452872 0.547128 0.631915 0.368085 0.421277 0.578723 0.452872 0.547128 0.242234 0.757766 0.421277 0.578723 0.210638 0.789362 0.663511 0.336489 0.452872 0.547128 0.631915 0.368085 0.421277 0.578723 0.452872 0.547128 0.242234 0.757766 0.421277 0.578723 0.210638 0.789362 0.452872 0.547128 0.242234 0.757766 0.421277 0.578723 0.210638 0.789362 0.242234 0.757766 0.031596 0.968404 0.210638 0.789362 0.0 1.0</probabilities>
		</cpt>
		<decision id="O33C">
			<state id="Check" />
			<state id="Uncheck" />
		</decision>
		<cpt id="O33S">
			<state id="State0" />
			<state id="State1" />
			<probabilities>0.5 0.5</probabilities>
		</cpt>
		<cpt id="O33">
			<state id="True" />
			<state id="False" />
			<parents>O33C O33S O32 O12 S12</parents>
			<probabilities>0.99 0.01 0.654407 0.345593 0.654407 0.345593 0.318814 0.681186 0.855763 0.144237 0.520169 0.479831 0.520169 0.479831 0.184576 0.815424 0.939661 0.060339 0.604068 0.395932 0.604068 0.395932 0.268475 0.731525 0.805424 0.194576 0.469831 0.530169 0.469831 0.530169 0.134237 0.865763 0.855763 0.144237 0.520169 0.479831 0.520169 0.479831 0.184576 0.815424 0.721525 0.278475 0.385932 0.614068 0.385932 0.614068 0.050339 0.949661 0.805424 0.194576 0.469831 0.530169 0.469831 0.530169 0.134237 0.865763 0.671186 0.328814 0.335593 0.664407 0.335593 0.664407 0.0 1.0</probabilities>
		</cpt>
		<decision id="O34C">
			<state id="Check" />
			<state id="Uncheck" />
		</decision>
		<cpt id="O34S">
			<state id="State0" />
			<state id="State1" />
			<probabilities>0.5 0.5</probabilities>
		</cpt>
		<cpt id="O2">
			<state id="State0" />
			<state id="State1" />
			<parents>O21 O22 O23 O24 O25</parents>
			<probabilities>1.0 0.0 0.8 0.2 0.8 0.2 0.6 0.4 0.8 0.2 0.6 0.4 0.6 0.4 0.4 0.6 0.8 0.2 0.6 0.4 0.6 0.4 0.4 0.6 0.6 0.4 0.4 0.6 0.4 0.6 0.2 0.8 0.8 0.2 0.6 0.4 0.6 0.4 0.4 0.6 0.6 0.4 0.4 0.6 0.4 0.6 0.2 0.8 0.6 0.4 0.4 0.6 0.4 0.6 0.2 0.8 0.4 0.6 0.2 0.8 0.2 0.8 0.0 1.0</probabilities>
		</cpt>
		<cpt id="O34">
			<state id="True" />
			<state id="False" />
			<parents>O34C O34S O33 O31 O2</parents>
			<probabilities>0.99 0.01 0.935 0.065 0.623333 0.376667 0.568333 0.431667 0.623333 0.376667 0.568333 0.431667 0.256667 0.743333 0.201667 0.798333 0.935 0.065 0.88 0.12 0.568333 0.431667 0.513333 0.486667 0.568333 0.431667 0.513333 0.486667 0.201667 0.798333 0.146667 0.853333 0.843333 0.156667 0.788333 0.211667 0.476667 0.523333 0.421667 0.578333 0.476667 0.523333 0.421667 0.578333 0.11 0.89 0.055 0.945 0.788333 0.211667 0.733333 0.266667 0.421667 0.578333 0.366667 0.633333 0.421667 0.578333 0.366667 0.633333 0.055 0.945 0.0 1.0</probabilities>
		</cpt>
		<decision id="O35C">
			<state id="Check" />
			<state id="Uncheck" />
		</decision>
		<cpt id="O35S">
			<state id="State0" />
			<state id="State1" />
			<probabilities>0.5 0.5</probabilities>
		</cpt>
		<cpt id="O35">
			<state id="True" />
			<state id="False" />
			<parents>O35C O35S O32 O31 O33 O34</parents>
			<probabilities>0.99 0.01 0.846 0.154 0.846 0.154 0.702 0.298 0.63 0.37 0.486 0.514 0.486 0.514 0.342 0.658 0.846 0.154 0.702 0.298 0.702 0.298 0.558 0.442 0.486 0.514 0.342 0.658 0.342 0.658 0.198 0.802 0.936 0.064 0.792 0.208 0.792 0.208 0.648 0.352 0.576 0.424 0.432 0.568 0.432 0.568 0.288 0.712 0.792 0.208 0.648 0.352 0.648 0.352 0.504 0.496 0.432 0.568 0.288 0.712 0.288 0.712 0.144 0.856 0.846 0.154 0.702 0.298 0.702 0.298 0.558 0.442 0.486 0.514 0.342 0.658 0.342 0.658 0.198 0.802 0.702 0.298 0.558 0.442 0.558 0.442 0.414 0.586 0.342 0.658 0.198 0.802 0.198 0.802 0.054 0.946 0.792 0.208 0.648 0.352 0.648 0.352 0.504 0.496 0.432 0.568 0.288 0.712 0.288 0.712 0.144 0.856 0.648 0.352 0.504 0.496 0.504 0.496 0.36 0.64 0.288 0.712 0.144 0.856 0.144 0.856 0.0 1.0</probabilities>
		</cpt>
		<cpt id="O3">
			<state id="True" />
			<state id="False" />
			<parents>O31 O33 O34 O35 O32</parents>
			<probabilities>1.0 0.0 0.8 0.2 0.8 0.2 0.6 0.4 0.8 0.2 0.6 0.4 0.6 0.4 0.4 0.6 0.8 0.2 0.6 0.4 0.6 0.4 0.4 0.6 0.6 0.4 0.4 0.6 0.4 0.6 0.2 0.8 0.8 0.2 0.6 0.4 0.6 0.4 0.4 0.6 0.6 0.4 0.4 0.6 0.4 0.6 0.2 0.8 0.6 0.4 0.4 0.6 0.4 0.6 0.2 0.8 0.4 0.6 0.2 0.8 0.2 0.8 0.0 1.0</probabilities>
		</cpt>
		<cpt id="S21">
			<state id="True" />
			<state id="False" />
			<parents>S21C S21S S1 O3 S13</parents>
			<probabilities>0.99 0.01 0.751446 0.248554 0.751446 0.248554 0.512892 0.487108 0.751446 0.248554 0.512892 0.487108 0.512892 0.487108 0.274337 0.725663 0.954217 0.045783 0.715663 0.284337 0.715663 0.284337 0.477108 0.522892 0.715663 0.284337 0.477108 0.522892 0.477108 0.522892 0.238554 0.761446 0.751446 0.248554 0.512892 0.487108 0.512892 0.487108 0.274337 0.725663 0.512892 0.487108 0.274337 0.725663 0.274337 0.725663 0.035783 0.964217 0.715663 0.284337 0.477108 0.522892 0.477108 0.522892 0.238554 0.761446 0.477108 0.522892 0.238554 0.761446 0.238554 0.761446 0.0 1.0</probabilities>
		</cpt>
		<cpt id="S22S">
			<state id="State0" />
			<state id="State1" />
			<probabilities>0.5 0.5</probabilities>
		</cpt>
		<decision id="S22C">
			<state id="Check" />
			<state id="Uncheck" />
		</decision>
		<cpt id="S22">
			<state id="True" />
			<state id="False" />
			<parents>S22C S22S S1 O3 S21 O13</parents>
			<probabilities>0.99 0.01 0.949865 0.050135 0.722432 0.277568 0.682297 0.317703 0.722432 0.277568 0.682297 0.317703 0.454865 0.545135 0.41473 0.58527 0.722432 0.277568 0.682297 0.317703 0.454865 0.545135 0.41473 0.58527 0.454865 0.545135 0.41473 0.58527 0.187297 0.812703 0.147162 0.852838 0.949865 0.050135 0.90973 0.09027 0.682297 0.317703 0.642162 0.357838 0.682297 0.317703 0.642162 0.357838 0.41473 0.58527 0.374595 0.625405 0.682297 0.317703 0.642162 0.357838 0.41473 0.58527 0.374595 0.625405 0.41473 0.58527 0.374595 0.625405 0.147162 0.852838 0.107027 0.892973 0.882973 0.117027 0.842838 0.157162 0.615405 0.384595 0.57527 0.42473 0.615405 0.384595 0.57527 0.42473 0.347838 0.652162 0.307703 0.692297 0.615405 0.384595 0.57527 0.42473 0.347838 0.652162 0.307703 0.692297 0.347838 0.652162 0.307703 0.692297 0.08027 0.91973 0.040135 0.959865 0.842838 0.157162 0.802703 0.197297 0.57527 0.42473 0.535135 0.464865 0.57527 0.42473 0.535135 0.464865 0.307703 0.692297 0.267568 0.732432 0.57527 0.42473 0.535135 0.464865 0.307703 0.692297 0.267568 0.732432 0.307703 0.692297 0.267568 0.732432 0.040135 0.959865 0.0 1.0</probabilities>
		</cpt>
		<decision id="S23C">
			<state id="Check" />
			<state id="Uncheck" />
		</decision>
		<cpt id="S23">
			<state id="True" />
			<state id="False" />
			<parents>S23C S23S S1 O3 S12 O13 S21</parents>
			<probabilities>0.99 0.01 0.958404 0.041596 0.905745 0.094255 0.874149 0.125851 0.779362 0.220638 0.747766 0.252234 0.695106 0.304894 0.663511 0.336489 0.779362 0.220638 0.747766 0.252234 0.695106 0.304894 0.663511 0.336489 0.568723 0.431277 0.537128 0.462872 0.484468 0.515532 0.452872 0.547128 0.779362 0.220638 0.747766 0.252234 0.695106 0.304894 0.663511 0.336489 0.568723 0.431277 0.537128 0.462872 0.484468 0.515532 0.452872 0.547128 0.568723 0.431277 0.537128 0.462872 0.484468 0.515532 0.452872 0.547128 0.358085 0.641915 0.326489 0.673511 0.27383 0.72617 0.242234 0.757766 0.958404 0.041596 0.926809 0.073191 0.874149 0.125851 0.842553 0.157447 0.747766 0.252234 0.71617 0.28383 0.663511 0.336489 0.631915 0.368085 0.747766 0.252234 0.71617 0.28383 0.663511 0.336489 0.631915 0.368085 0.537128 0.462872 0.505532 0.494468 0.452872 0.547128 0.421277 0.578723 0.747766 0.252234 0.71617 0.28383 0.663511 0.336489 0.631915 0.368085 0.537128 0.462872 0.505532 0.494468 0.452872 0.547128 0.421277 0.578723 0.537128 0.462872 0.505532 0.494468 0.452872 0.547128 0.421277 0.578723 0.326489 0.673511 0.294894 0.705106 0.242234 0.757766 0.210638 0.789362 0.779362 0.220638 0.747766 0.252234 0.695106 0.304894 0.663511 0.336489 0.568723 0.431277 0.537128 0.462872 0.484468 0.515532 0.452872 0.547128 0.568723 0.431277 0.537128 0.462872 0.484468 0.515532 0.452872 0.547128 0.358085 0.641915 0.326489 0.673511 0.27383 0.72617 0.242234 0.757766 0.568723 0.431277 0.537128 0.462872 0.484468 0.515532 0.452872 0.547128 0.358085 0.641915 0.326489 0.673511 0.27383 0.72617 0.242234 0.757766 0.358085 0.641915 0.326489 0.673511 0.27383 0.72617 0.242234 0.757766 0.147447 0.852553 0.115851 0.884149 0.063191 0.936809 0.031596 0.968404 0.747766 0.252234 0.71617 0.28383 0.663511 0.336489 0.631915 0.368085 0.537128 0.462872 0.505532 0.494468 0.452872 0.547128 0.421277 0.578723 0.537128 0.462872 0.505532 0.494468 0.452872 0.547128 0.421277 0.578723 0.326489 0.673511 0.294894 0.705106 0.242234 0.757766 0.210638 0.789362 0.537128 0.462872 0.505532 0.494468 0.452872 0.547128 0.421277 0.578723 0.326489 0.673511 0.294894 0.705106 0.242234 0.757766 0.210638 0.789362 0.326489 0.673511 0.294894 0.705106 0.242234 0.757766 0.210638 0.789362 0.115851 0.884149 0.084255 0.915745 0.031596 0.968404 0.0 1.0</probabilities>
		</cpt>
		<cpt id="S31S">
			<state id="State0" />
			<state id="State1" />
			<probabilities>0.5 0.5</probabilities>
		</cpt>
		<cpt id="S33S">
			<state id="State0" />
			<state id="State1" />
			<probabilities>0.5 0.5</probabilities>
		</cpt>
		<decision id="S31C">
			<state id="Check" />
			<state id="Uncheck" />
		</decision>
		<decision id="S24C">
			<state id="Check" />
			<state id="Uncheck" />
		</decision>
		<cpt id="S24S">
			<state id="State0" />
			<state id="State1" />
			<probabilities>0.5 0.5</probabilities>
		</cpt>
		<cpt id="T11S">
			<state id="State0" />
			<state id="State1" />
			<probabilities>0.5 0.5</probabilities>
		</cpt>
		<decision id="T11C">
			<state id="Check" />
			<state id="Uncheck" />
		</decision>
		<cpt id="R11S">
			<state id="State0" />
			<state id="State1" />
			<probabilities>0.5 0.5</probabilities>
		</cpt>
		<decision id="R11C">
			<state id="Check" />
			<state id="Uncheck" />
		</decision>
		<cpt id="R11">
			<state id="True" />
			<state id="False" />
			<parents>R11C R11S S22 O23 O24 O25 O11 O22</parents>
			<probabilities>0.99 0.01 0.906632 0.093368 0.906632 0.093368 0.823263 0.176737 0.906632 0.093368 0.823263 0.176737 0.823263 0.176737 0.739895 0.260105 0.781579 0.218421 0.698211 0.301789 0.698211 0.301789 0.614842 0.385158 0.698211 0.301789 0.614842 0.385158 0.614842 0.385158 0.531474 0.468526 0.781579 0.218421 0.698211 0.301789 0.698211 0.301789 0.614842 0.385158 0.698211 0.301789 0.614842 0.385158 0.614842 0.385158 0.531474 0.468526 0.573158 0.426842 0.489789 0.510211 0.489789 0.510211 0.406421 0.593579 0.489789 0.510211 0.406421 0.593579 0.406421 0.593579 0.323053 0.676947 0.906632 0.093368 0.823263 0.176737 0.823263 0.176737 0.739895 0.260105 0.823263 0.176737 0.739895 0.260105 0.739895 0.260105 0.656526 0.343474 0.698211 0.301789 0.614842 0.385158 0.614842 0.385158 0.531474 0.468526 0.614842 0.385158 0.531474 0.468526 0.531474 0.468526 0.448105 0.551895 0.698211 0.301789 0.614842 0.385158 0.614842 0.385158 0.531474 0.468526 0.614842 0.385158 0.531474 0.468526 0.531474 0.468526 0.448105 0.551895 0.489789 0.510211 0.406421 0.593579 0.406421 0.593579 0.323053 0.676947 0.406421 0.593579 0.323053 0.676947 0.323053 0.676947 0.239684 0.760316 0.958737 0.041263 0.875368 0.124632 0.875368 0.124632 0.792 0.208 0.875368 0.124632 0.792 0.208 0.792 0.208 0.708632 0.291368 0.750316 0.249684 0.666947 0.333053 0.666947 0.333053 0.583579 0.416421 0.666947 0.333053 0.583579 0.416421 0.583579 0.416421 0.500211 0.499789 0.750316 0.249684 0.666947 0.333053 0.666947 0.333053 0.583579 0.416421 0.666947 0.333053 0.583579 0.416421 0.583579 0.416421 0.500211 0.499789 0.541895 0.458105 0.458526 0.541474 0.458526 0.541474 0.375158 0.624842 0.458526 0.541474 0.375158 0.624842 0.375158 0.624842 0.291789 0.708211 0.875368 0.124632 0.792 0.208 0.792 0.208 0.708632 0.291368 0.792 0.208 0.708632 0.291368 0.708632 0.291368 0.625263 0.374737 0.666947 0.333053 0.583579 0.416421 0.583579 0.416421 0.500211 0.499789 0.583579 0.416421 0.500211 0.499789 0.500211 0.499789 0.416842 0.583158 0.666947 0.333053 0.583579 0.416421 0.583579 0.416421 0.500211 0.499789 0.583579 0.416421 0.500211 0.499789 0.500211 0.499789 0.416842 0.583158 0.458526 0.541474 0.375158 0.624842 0.375158 0.624842 0.291789 0.708211 0.375158 0.624842 0.291789 0.708211 0.291789 0.708211 0.208421 0.791579 0.781579 0.218421 0.698211 0.301789 0.698211 0.301789 0.614842 0.385158 0.698211 0.301789 0.614842 0.385158 0.614842 0.385158 0.531474 0.468526 0.573158 0.426842 0.489789 0.510211 0.489789 0.510211 0.406421 0.593579 0.489789 0.510211 0.406421 0.593579 0.406421 0.593579 0.323053 0.676947 0.573158 0.426842 0.489789 0.510211 0.489789 0.510211 0.406421 0.593579 0.489789 0.510211 0.406421 0.593579 0.406421 0.593579 0.323053 0.676947 0.364737 0.635263 0.281368 0.718632 0.281368 0.718632 0.198 0.802 0.281368 0.718632 0.198 0.802 0.198 0.802 0.114632 0.885368 0.698211 0.301789 0.614842 0.385158 0.614842 0.385158 0.531474 0.468526 0.614842 0.385158 0.531474 0.468526 0.531474 0.468526 0.448105 0.551895 0.489789 0.510211 0.406421 0.593579 0.406421 0.593579 0.323053 0.676947 0.406421 0.593579 0.323053 0.676947 0.323053 0.676947 0.239684 0.760316 0.489789 0.510211 0.406421 0.593579 0.406421 0.593579 0.323053 0.676947 0.406421 0.593579 0.323053 0.676947 0.323053 0.676947 0.239684 0.760316 0.281368 0.718632 0.198 0.802 0.198 0.802 0.114632 0.885368 0.198 0.802 0.114632 0.885368 0.114632 0.885368 0.031263 0.968737 0.750316 0.249684 0.666947 0.333053 0.666947 0.333053 0.583579 0.416421 0.666947 0.333053 0.583579 0.416421 0.583579 0.416421 0.500211 0.499789 0.541895 0.458105 0.458526 0.541474 0.458526 0.541474 0.375158 0.624842 0.458526 0.541474 0.375158 0.624842 0.375158 0.624842 0.291789 0.708211 0.541895 0.458105 0.458526 0.541474 0.458526 0.541474 0.375158 0.624842 0.458526 0.541474 0.375158 0.624842 0.375158 0.624842 0.291789 0.708211 0.333474 0.666526 0.250105 0.749895 0.250105 0.749895 0.166737 0.833263 0.250105 0.749895 0.166737 0.833263 0.166737 0.833263 0.083368 0.916632 0.666947 0.333053 0.583579 0.416421 0.583579 0.416421 0.500211 0.499789 0.583579 0.416421 0.500211 0.499789 0.500211 0.499789 0.416842 0.583158 0.458526 0.541474 0.375158 0.624842 0.375158 0.624842 0.291789 0.708211 0.375158 0.624842 0.291789 0.708211 0.291789 0.708211 0.208421 0.791579 0.458526 0.541474 0.375158 0.624842 0.375158 0.624842 0.291789 0.708211 0.375158 0.624842 0.291789 0.708211 0.291789 0.708211 0.208421 0.791579 0.250105 0.749895 0.166737 0.833263 0.166737 0.833263 0.083368 0.916632 0.166737 0.833263 0.083368 0.916632 0.083368 0.916632 0.0 1.0</probabilities>
		</cpt>
		<decision id="R14C">
			<state id="Check" />
			<state id="Uncheck" />
		</decision>
		<cpt id="R14S">
			<state id="State0" />
			<state id="State1" />
			<probabilities>0.5 0.5</probabilities>
		</cpt>
		<cpt id="R14">
			<state id="True" />
			<state id="False" />
			<parents>R14C R14S O11 O23 O24 O25</parents>
			<probabilities>0.99 0.01 0.739367 0.260633 0.739367 0.260633 0.488734 0.511266 0.889747 0.110253 0.639114 0.360886 0.639114 0.360886 0.388481 0.611519 0.739367 0.260633 0.488734 0.511266 0.488734 0.511266 0.238101 0.761899 0.639114 0.360886 0.388481 0.611519 0.388481 0.611519 0.137848 0.862152 0.952405 0.047595 0.701772 0.298228 0.701772 0.298228 0.451139 0.548861 0.852152 0.147848 0.601519 0.398481 0.601519 0.398481 0.350886 0.649114 0.701772 0.298228 0.451139 0.548861 0.451139 0.548861 0.200506 0.799494 0.601519 0.398481 0.350886 0.649114 0.350886 0.649114 0.100253 0.899747 0.889747 0.110253 0.639114 0.360886 0.639114 0.360886 0.388481 0.611519 0.789494 0.210506 0.538861 0.461139 0.538861 0.461139 0.288228 0.711772 0.639114 0.360886 0.388481 0.611519 0.388481 0.611519 0.137848 0.862152 0.538861 0.461139 0.288228 0.711772 0.288228 0.711772 0.037595 0.962405 0.852152 0.147848 0.601519 0.398481 0.601519 0.398481 0.350886 0.649114 0.751899 0.248101 0.501266 0.498734 0.501266 0.498734 0.250633 0.749367 0.601519 0.398481 0.350886 0.649114 0.350886 0.649114 0.100253 0.899747 0.501266 0.498734 0.250633 0.749367 0.250633 0.749367 0.0 1.0</probabilities>
		</cpt>
		<cpt id="T11">
			<state id="True" />
			<state id="False" />
			<parents>T11C T11S O2 O35 S23 R11 R14</parents>
			<probabilities>0.99 0.01 0.779362 0.220638 0.779362 0.220638 0.568723 0.431277 0.958404 0.041596 0.747766 0.252234 0.747766 0.252234 0.537128 0.462872 0.779362 0.220638 0.568723 0.431277 0.568723 0.431277 0.358085 0.641915 0.747766 0.252234 0.537128 0.462872 0.537128 0.462872 0.326489 0.673511 0.779362 0.220638 0.568723 0.431277 0.568723 0.431277 0.358085 0.641915 0.747766 0.252234 0.537128 0.462872 0.537128 0.462872 0.326489 0.673511 0.568723 0.431277 0.358085 0.641915 0.358085 0.641915 0.147447 0.852553 0.537128 0.462872 0.326489 0.673511 0.326489 0.673511 0.115851 0.884149 0.958404 0.041596 0.747766 0.252234 0.747766 0.252234 0.537128 0.462872 0.926809 0.073191 0.71617 0.28383 0.71617 0.28383 0.505532 0.494468 0.747766 0.252234 0.537128 0.462872 0.537128 0.462872 0.326489 0.673511 0.71617 0.28383 0.505532 0.494468 0.505532 0.494468 0.294894 0.705106 0.747766 0.252234 0.537128 0.462872 0.537128 0.462872 0.326489 0.673511 0.71617 0.28383 0.505532 0.494468 0.505532 0.494468 0.294894 0.705106 0.537128 0.462872 0.326489 0.673511 0.326489 0.673511 0.115851 0.884149 0.505532 0.494468 0.294894 0.705106 0.294894 0.705106 0.084255 0.915745 0.905745 0.094255 0.695106 0.304894 0.695106 0.304894 0.484468 0.515532 0.874149 0.125851 0.663511 0.336489 0.663511 0.336489 0.452872 0.547128 0.695106 0.304894 0.484468 0.515532 0.484468 0.515532 0.27383 0.72617 0.663511 0.336489 0.452872 0.547128 0.452872 0.547128 0.242234 0.757766 0.695106 0.304894 0.484468 0.515532 0.484468 0.515532 0.27383 0.72617 0.663511 0.336489 0.452872 0.547128 0.452872 0.547128 0.242234 0.757766 0.484468 0.515532 0.27383 0.72617 0.27383 0.72617 0.063191 0.936809 0.452872 0.547128 0.242234 0.757766 0.242234 0.757766 0.031596 0.968404 0.874149 0.125851 0.663511 0.336489 0.663511 0.336489 0.452872 0.547128 0.842553 0.157447 0.631915 0.368085 0.631915 0.368085 0.421277 0.578723 0.663511 0.336489 0.452872 0.547128 0.452872 0.547128 0.242234 0.757766 0.631915 0.368085 0.421277 0.578723 0.421277 0.578723 0.210638 0.789362 0.663511 0.336489 0.452872 0.547128 0.452872 0.547128 0.242234 0.757766 0.631915 0.368085 0.421277 0.578723 0.421277 0.578723 0.210638 0.789362 0.452872 0.547128 0.242234 0.757766 0.242234 0.757766 0.031596 0.968404 0.421277 0.578723 0.210638 0.789362 0.210638 0.789362 0.0 1.0</probabilities>
		</cpt>
		<cpt id="T12S">
			<state id="State0" />
			<state id="State1" />
			<probabilities>0.5 0.5</probabilities>
		</cpt>
		<decision id="T12C">
			<state id="Check" />
			<state id="Uncheck" />
		</decision>
		<cpt id="T12">
			<state id="True" />
			<state id="False" />
			<parents>T12C T12S T11</parents>
			<probabilities>0.99 0.01 0.529535 0.470465 0.92093 0.07907 0.460465 0.539535 0.529535 0.470465 0.06907 0.93093 0.460465 0.539535 0.0 1.0</probabilities>
		</cpt>
		<decision id="T13C">
			<state id="Check" />
			<state id="Uncheck" />
		</decision>
		<cpt id="T13S">
			<state id="State0" />
			<state id="State1" />
			<probabilities>0.5 0.5</probabilities>
		</cpt>
		<decision id="W13C">
			<state id="Check" />
			<state id="Uncheck" />
		</decision>
		<cpt id="W13S">
			<state id="State0" />
			<state id="State1" />
			<probabilities>0.5 0.5</probabilities>
		</cpt>
		<decision id="R13C">
			<state id="Check" />
			<state id="Uncheck" />
		</decision>
		<cpt id="R13S">
			<state id="State0" />
			<state id="State1" />
			<probabilities>0.5 0.5</probabilities>
		</cpt>
		<cpt id="R13">
			<state id="True" />
			<state id="False" />
			<parents>R13C R13S S12 S21 O12 O21</parents>
			<probabilities>0.99 0.01 0.772418 0.227582 0.772418 0.227582 0.554835 0.445165 0.902967 0.097033 0.685385 0.314615 0.685385 0.314615 0.467802 0.532198 0.772418 0.227582 0.554835 0.445165 0.554835 0.445165 0.337253 0.662747 0.685385 0.314615 0.467802 0.532198 0.467802 0.532198 0.25022 0.74978 0.957363 0.042637 0.73978 0.26022 0.73978 0.26022 0.522198 0.477802 0.87033 0.12967 0.652747 0.347253 0.652747 0.347253 0.435165 0.564835 0.73978 0.26022 0.522198 0.477802 0.522198 0.477802 0.304615 0.695385 0.652747 0.347253 0.435165 0.564835 0.435165 0.564835 0.217582 0.782418 0.772418 0.227582 0.554835 0.445165 0.554835 0.445165 0.337253 0.662747 0.685385 0.314615 0.467802 0.532198 0.467802 0.532198 0.25022 0.74978 0.554835 0.445165 0.337253 0.662747 0.337253 0.662747 0.11967 0.88033 0.467802 0.532198 0.25022 0.74978 0.25022 0.74978 0.032637 0.967363 0.73978 0.26022 0.522198 0.477802 0.522198 0.477802 0.304615 0.695385 0.652747 0.347253 0.435165 0.564835 0.435165 0.564835 0.217582 0.782418 0.522198 0.477802 0.304615 0.695385 0.304615 0.695385 0.087033 0.912967 0.435165 0.564835 0.217582 0.782418 0.217582 0.782418 0.0 1.0</probabilities>
		</cpt>
		<cpt id="W11S">
			<state id="State0" />
			<state id="State1" />
			<probabilities>0.5 0.5</probabilities>
		</cpt>
		<decision id="W11C">
			<state id="Check" />
			<state id="Uncheck" />
		</decision>
		<cpt id="W11">
			<state id="True" />
			<state id="False" />
			<parents>W11C W11S O21 O25 O24 S12 R13</parents>
			<probabilities>0.99 0.01 0.8844 0.1156 0.8844 0.1156 0.7788 0.2212 0.8844 0.1156 0.7788 0.2212 0.7788 0.2212 0.6732 0.3268 0.8844 0.1156 0.7788 0.2212 0.7788 0.2212 0.6732 0.3268 0.7788 0.2212 0.6732 0.3268 0.6732 0.3268 0.5676 0.4324 0.726 0.274 0.6204 0.3796 0.6204 0.3796 0.5148 0.4852 0.6204 0.3796 0.5148 0.4852 0.5148 0.4852 0.4092 0.5908 0.6204 0.3796 0.5148 0.4852 0.5148 0.4852 0.4092 0.5908 0.5148 0.4852 0.4092 0.5908 0.4092 0.5908 0.3036 0.6964 0.9504 0.0496 0.8448 0.1552 0.8448 0.1552 0.7392 0.2608 0.8448 0.1552 0.7392 0.2608 0.7392 0.2608 0.6336 0.3664 0.8448 0.1552 0.7392 0.2608 0.7392 0.2608 0.6336 0.3664 0.7392 0.2608 0.6336 0.3664 0.6336 0.3664 0.528 0.472 0.6864 0.3136 0.5808 0.4192 0.5808 0.4192 0.4752 0.5248 0.5808 0.4192 0.4752 0.5248 0.4752 0.5248 0.3696 0.6304 0.5808 0.4192 0.4752 0.5248 0.4752 0.5248 0.3696 0.6304 0.4752 0.5248 0.3696 0.6304 0.3696 0.6304 0.264 0.736 0.726 0.274 0.6204 0.3796 0.6204 0.3796 0.5148 0.4852 0.6204 0.3796 0.5148 0.4852 0.5148 0.4852 0.4092 0.5908 0.6204 0.3796 0.5148 0.4852 0.5148 0.4852 0.4092 0.5908 0.5148 0.4852 0.4092 0.5908 0.4092 0.5908 0.3036 0.6964 0.462 0.538 0.3564 0.6436 0.3564 0.6436 0.2508 0.7492 0.3564 0.6436 0.2508 0.7492 0.2508 0.7492 0.1452 0.8548 0.3564 0.6436 0.2508 0.7492 0.2508 0.7492 0.1452 0.8548 0.2508 0.7492 0.1452 0.8548 0.1452 0.8548 0.0396 0.9604 0.6864 0.3136 0.5808 0.4192 0.5808 0.4192 0.4752 0.5248 0.5808 0.4192 0.4752 0.5248 0.4752 0.5248 0.3696 0.6304 0.5808 0.4192 0.4752 0.5248 0.4752 0.5248 0.3696 0.6304 0.4752 0.5248 0.3696 0.6304 0.3696 0.6304 0.264 0.736 0.4224 0.5776 0.3168 0.6832 0.3168 0.6832 0.2112 0.7888 0.3168 0.6832 0.2112 0.7888 0.2112 0.7888 0.1056 0.8944 0.3168 0.6832 0.2112 0.7888 0.2112 0.7888 0.1056 0.8944 0.2112 0.7888 0.1056 0.8944 0.1056 0.8944 0.0 1.0</probabilities>
		</cpt>
		<cpt id="W13">
			<state id="True" />
			<state id="False" />
			<parents>W13C W13S R13 S12 S21 O12 O21 W11</parents>
			<probabilities>0.99 0.01 0.957 0.043 0.902 0.098 0.869 0.131 0.77 0.23 0.737 0.263 0.682 0.318 0.649 0.351 0.902 0.098 0.869 0.131 0.814 0.186 0.781 0.219 0.682 0.318 0.649 0.351 0.594 0.406 0.561 0.439 0.902 0.098 0.869 0.131 0.814 0.186 0.781 0.219 0.682 0.318 0.649 0.351 0.594 0.406 0.561 0.439 0.814 0.186 0.781 0.219 0.726 0.274 0.693 0.307 0.594 0.406 0.561 0.439 0.506 0.494 0.473 0.527 0.77 0.23 0.737 0.263 0.682 0.318 0.649 0.351 0.55 0.45 0.517 0.483 0.462 0.538 0.429 0.571 0.682 0.318 0.649 0.351 0.594 0.406 0.561 0.439 0.462 0.538 0.429 0.571 0.374 0.626 0.341 0.659 0.682 0.318 0.649 0.351 0.594 0.406 0.561 0.439 0.462 0.538 0.429 0.571 0.374 0.626 0.341 0.659 0.594 0.406 0.561 0.439 0.506 0.494 0.473 0.527 0.374 0.626 0.341 0.659 0.286 0.714 0.253 0.747 0.957 0.043 0.924 0.076 0.869 0.131 0.836 0.164 0.737 0.263 0.704 0.296 0.649 0.351 0.616 0.384 0.869 0.131 0.836 0.164 0.781 0.219 0.748 0.252 0.649 0.351 0.616 0.384 0.561 0.439 0.528 0.472 0.869 0.131 0.836 0.164 0.781 0.219 0.748 0.252 0.649 0.351 0.616 0.384 0.561 0.439 0.528 0.472 0.781 0.219 0.748 0.252 0.693 0.307 0.66 0.34 0.561 0.439 0.528 0.472 0.473 0.527 0.44 0.56 0.737 0.263 0.704 0.296 0.649 0.351 0.616 0.384 0.517 0.483 0.484 0.516 0.429 0.571 0.396 0.604 0.649 0.351 0.616 0.384 0.561 0.439 0.528 0.472 0.429 0.571 0.396 0.604 0.341 0.659 0.308 0.692 0.649 0.351 0.616 0.384 0.561 0.439 0.528 0.472 0.429 0.571 0.396 0.604 0.341 0.659 0.308 0.692 0.561 0.439 0.528 0.472 0.473 0.527 0.44 0.56 0.341 0.659 0.308 0.692 0.253 0.747 0.22 0.78 0.77 0.23 0.737 0.263 0.682 0.318 0.649 0.351 0.55 0.45 0.517 0.483 0.462 0.538 0.429 0.571 0.682 0.318 0.649 0.351 0.594 0.406 0.561 0.439 0.462 0.538 0.429 0.571 0.374 0.626 0.341 0.659 0.682 0.318 0.649 0.351 0.594 0.406 0.561 0.439 0.462 0.538 0.429 0.571 0.374 0.626 0.341 0.659 0.594 0.406 0.561 0.439 0.506 0.494 0.473 0.527 0.374 0.626 0.341 0.659 0.286 0.714 0.253 0.747 0.55 0.45 0.517 0.483 0.462 0.538 0.429 0.571 0.33 0.67 0.297 0.703 0.242 0.758 0.209 0.791 0.462 0.538 0.429 0.571 0.374 0.626 0.341 0.659 0.242 0.758 0.209 0.791 0.154 0.846 0.121 0.879 0.462 0.538 0.429 0.571 0.374 0.626 0.341 0.659 0.242 0.758 0.209 0.791 0.154 0.846 0.121 0.879 0.374 0.626 0.341 0.659 0.286 0.714 0.253 0.747 0.154 0.846 0.121 0.879 0.066 0.934 0.033 0.967 0.737 0.263 0.704 0.296 0.649 0.351 0.616 0.384 0.517 0.483 0.484 0.516 0.429 0.571 0.396 0.604 0.649 0.351 0.616 0.384 0.561 0.439 0.528 0.472 0.429 0.571 0.396 0.604 0.341 0.659 0.308 0.692 0.649 0.351 0.616 0.384 0.561 0.439 0.528 0.472 0.429 0.571 0.396 0.604 0.341 0.659 0.308 0.692 0.561 0.439 0.528 0.472 0.473 0.527 0.44 0.56 0.341 0.659 0.308 0.692 0.253 0.747 0.22 0.78 0.517 0.483 0.484 0.516 0.429 0.571 0.396 0.604 0.297 0.703 0.264 0.736 0.209 0.791 0.176 0.824 0.429 0.571 0.396 0.604 0.341 0.659 0.308 0.692 0.209 0.791 0.176 0.824 0.121 0.879 0.088 0.912 0.429 0.571 0.396 0.604 0.341 0.659 0.308 0.692 0.209 0.791 0.176 0.824 0.121 0.879 0.088 0.912 0.341 0.659 0.308 0.692 0.253 0.747 0.22 0.78 0.121 0.879 0.088 0.912 0.033 0.967 0.0 1.0</probabilities>
		</cpt>
		<cpt id="T13">
			<state id="True" />
			<state id="False" />
			<parents>T13C T13S T12 W13</parents>
			<probabilities>0.99 0.01 0.675714 0.324286 0.675714 0.324286 0.361429 0.638571 0.942857 0.057143 0.628571 0.371429 0.628571 0.371429 0.314286 0.685714 0.675714 0.324286 0.361429 0.638571 0.361429 0.638571 0.047143 0.952857 0.628571 0.371429 0.314286 0.685714 0.314286 0.685714 0.0 1.0</probabilities>
		</cpt>
		<decision id="T14C">
			<state id="Check" />
			<state id="Uncheck" />
		</decision>
		<cpt id="T14S">
			<state id="State0" />
			<state id="State1" />
			<probabilities>0.5 0.5</probabilities>
		</cpt>
		<decision id="R24C">
			<state id="Check" />
			<state id="Uncheck" />
		</decision>
		<cpt id="R24S">
			<state id="State0" />
			<state id="State1" />
			<probabilities>0.5 0.5</probabilities>
		</cpt>
		<cpt id="R24">
			<state id="True" />
			<state id="False" />
			<parents>R24C R24S O11 O31 O32 O24 O23 O12</parents>
			<probabilities>0.99 0.01 0.781579 0.218421 0.906632 0.093368 0.698211 0.301789 0.781579 0.218421 0.573158 0.426842 0.698211 0.301789 0.489789 0.510211 0.781579 0.218421 0.573158 0.426842 0.698211 0.301789 0.489789 0.510211 0.573158 0.426842 0.364737 0.635263 0.489789 0.510211 0.281368 0.718632 0.906632 0.093368 0.698211 0.301789 0.823263 0.176737 0.614842 0.385158 0.698211 0.301789 0.489789 0.510211 0.614842 0.385158 0.406421 0.593579 0.698211 0.301789 0.489789 0.510211 0.614842 0.385158 0.406421 0.593579 0.489789 0.510211 0.281368 0.718632 0.406421 0.593579 0.198 0.802 0.906632 0.093368 0.698211 0.301789 0.823263 0.176737 0.614842 0.385158 0.698211 0.301789 0.489789 0.510211 0.614842 0.385158 0.406421 0.593579 0.698211 0.301789 0.489789 0.510211 0.614842 0.385158 0.406421 0.593579 0.489789 0.510211 0.281368 0.718632 0.406421 0.593579 0.198 0.802 0.823263 0.176737 0.614842 0.385158 0.739895 0.260105 0.531474 0.468526 0.614842 0.385158 0.406421 0.593579 0.531474 0.468526 0.323053 0.676947 0.614842 0.385158 0.406421 0.593579 0.531474 0.468526 0.323053 0.676947 0.406421 0.593579 0.198 0.802 0.323053 0.676947 0.114632 0.885368 0.958737 0.041263 0.750316 0.249684 0.875368 0.124632 0.666947 0.333053 0.750316 0.249684 0.541895 0.458105 0.666947 0.333053 0.458526 0.541474 0.750316 0.249684 0.541895 0.458105 0.666947 0.333053 0.458526 0.541474 0.541895 0.458105 0.333474 0.666526 0.458526 0.541474 0.250105 0.749895 0.875368 0.124632 0.666947 0.333053 0.792 0.208 0.583579 0.416421 0.666947 0.333053 0.458526 0.541474 0.583579 0.416421 0.375158 0.624842 0.666947 0.333053 0.458526 0.541474 0.583579 0.416421 0.375158 0.624842 0.458526 0.541474 0.250105 0.749895 0.375158 0.624842 0.166737 0.833263 0.875368 0.124632 0.666947 0.333053 0.792 0.208 0.583579 0.416421 0.666947 0.333053 0.458526 0.541474 0.583579 0.416421 0.375158 0.624842 0.666947 0.333053 0.458526 0.541474 0.583579 0.416421 0.375158 0.624842 0.458526 0.541474 0.250105 0.749895 0.375158 0.624842 0.166737 0.833263 0.792 0.208 0.583579 0.416421 0.708632 0.291368 0.500211 0.499789 0.583579 0.416421 0.375158 0.624842 0.500211 0.499789 0.291789 0.708211 0.583579 0.416421 0.375158 0.624842 0.500211 0.499789 0.291789 0.708211 0.375158 0.624842 0.166737 0.833263 0.291789 0.708211 0.083368 0.916632 0.906632 0.093368 0.698211 0.301789 0.823263 0.176737 0.614842 0.385158 0.698211 0.301789 0.489789 0.510211 0.614842 0.385158 0.406421 0.593579 0.698211 0.301789 0.489789 0.510211 0.614842 0.385158 0.406421 0.593579 0.489789 0.510211 0.281368 0.718632 0.406421 0.593579 0.198 0.802 0.823263 0.176737 0.614842 0.385158 0.739895 0.260105 0.531474 0.468526 0.614842 0.385158 0.406421 0.593579 0.531474 0.468526 0.323053 0.676947 0.614842 0.385158 0.406421 0.593579 0.531474 0.468526 0.323053 0.676947 0.406421 0.593579 0.198 0.802 0.323053 0.676947 0.114632 0.885368 0.823263 0.176737 0.614842 0.385158 0.739895 0.260105 0.531474 0.468526 0.614842 0.385158 0.406421 0.593579 0.531474 0.468526 0.323053 0.676947 0.614842 0.385158 0.406421 0.593579 0.531474 0.468526 0.323053 0.676947 0.406421 0.593579 0.198 0.802 0.323053 0.676947 0.114632 0.885368 0.739895 0.260105 0.531474 0.468526 0.656526 0.343474 0.448105 0.551895 0.531474 0.468526 0.323053 0.676947 0.448105 0.551895 0.239684 0.760316 0.531474 0.468526 0.323053 0.676947 0.448105 0.551895 0.239684 0.760316 0.323053 0.676947 0.114632 0.885368 0.239684 0.760316 0.031263 0.968737 0.875368 0.124632 0.666947 0.333053 0.792 0.208 0.583579 0.416421 0.666947 0.333053 0.458526 0.541474 0.583579 0.416421 0.375158 0.624842 0.666947 0.333053 0.458526 0.541474 0.583579 0.416421 0.375158 0.624842 0.458526 0.541474 0.250105 0.749895 0.375158 0.624842 0.166737 0.833263 0.792 0.208 0.583579 0.416421 0.708632 0.291368 0.500211 0.499789 0.583579 0.416421 0.375158 0.624842 0.500211 0.499789 0.291789 0.708211 0.583579 0.416421 0.375158 0.624842 0.500211 0.499789 0.291789 0.708211 0.375158 0.624842 0.166737 0.833263 0.291789 0.708211 0.083368 0.916632 0.792 0.208 0.583579 0.416421 0.708632 0.291368 0.500211 0.499789 0.583579 0.416421 0.375158 0.624842 0.500211 0.499789 0.291789 0.708211 0.583579 0.416421 0.375158 0.624842 0.500211 0.499789 0.291789 0.708211 0.375158 0.624842 0.166737 0.833263 0.291789 0.708211 0.083368 0.916632 0.708632 0.291368 0.500211 0.499789 0.625263 0.374737 0.416842 0.583158 0.500211 0.499789 0.291789 0.708211 0.416842 0.583158 0.208421 0.791579 0.500211 0.499789 0.291789 0.708211 0.416842 0.583158 0.208421 0.791579 0.291789 0.708211 0.083368 0.916632 0.208421 0.791579 0.0 1.0</probabilities>
		</cpt>
		<cpt id="T14">
			<state id="True" />
			<state id="False" />
			<parents>T14C T14S T11 T12 R24</parents>
			<probabilities>0.99 0.01 0.751446 0.248554 0.751446 0.248554 0.512892 0.487108 0.751446 0.248554 0.512892 0.487108 0.512892 0.487108 0.274337 0.725663 0.954217 0.045783 0.715663 0.284337 0.715663 0.284337 0.477108 0.522892 0.715663 0.284337 0.477108 0.522892 0.477108 0.522892 0.238554 0.761446 0.751446 0.248554 0.512892 0.487108 0.512892 0.487108 0.274337 0.725663 0.512892 0.487108 0.274337 0.725663 0.274337 0.725663 0.035783 0.964217 0.715663 0.284337 0.477108 0.522892 0.477108 0.522892 0.238554 0.761446 0.477108 0.522892 0.238554 0.761446 0.238554 0.761446 0.0 1.0</probabilities>
		</cpt>
		<decision id="T15C">
			<state id="Check" />
			<state id="Uncheck" />
		</decision>
		<cpt id="T15S">
			<state id="State0" />
			<state id="State1" />
			<probabilities>0.5 0.5</probabilities>
		</cpt>
		<cpt id="WW12S">
			<state id="State0" />
			<state id="State1" />
			<probabilities>0.5 0.5</probabilities>
		</cpt>
		<decision id="WW12C">
			<state id="Check" />
			<state id="Uncheck" />
		</decision>
		<cpt id="WW12">
			<state id="True" />
			<state id="False" />
			<parents>WW12C WW12S T12 S22 S23</parents>
			<probabilities>0.99 0.01 0.90973 0.09027 0.454865 0.545135 0.374595 0.625405 0.90973 0.09027 0.829459 0.170541 0.374595 0.625405 0.294324 0.705676 0.90973 0.09027 0.829459 0.170541 0.374595 0.625405 0.294324 0.705676 0.829459 0.170541 0.749189 0.250811 0.294324 0.705676 0.214054 0.785946 0.775946 0.224054 0.695676 0.304324 0.240811 0.759189 0.160541 0.839459 0.695676 0.304324 0.615405 0.384595 0.160541 0.839459 0.08027 0.91973 0.695676 0.304324 0.615405 0.384595 0.160541 0.839459 0.08027 0.91973 0.615405 0.384595 0.535135 0.464865 0.08027 0.91973 0.0 1.0</probabilities>
		</cpt>
		<cpt id="T15">
			<state id="True" />
			<state id="False" />
			<parents>T15C T15S T11 T14 WW12</parents>
			<probabilities>0.99 0.01 0.945 0.055 0.69 0.31 0.645 0.355 0.69 0.31 0.645 0.355 0.39 0.61 0.345 0.655 0.945 0.055 0.9 0.1 0.645 0.355 0.6 0.4 0.645 0.355 0.6 0.4 0.345 0.655 0.3 0.7 0.69 0.31 0.645 0.355 0.39 0.61 0.345 0.655 0.39 0.61 0.345 0.655 0.09 0.91 0.045 0.955 0.645 0.355 0.6 0.4 0.345 0.655 0.3 0.7 0.345 0.655 0.3 0.7 0.045 0.955 0.0 1.0</probabilities>
		</cpt>
		<decision id="T16C">
			<state id="Check" />
			<state id="Uncheck" />
		</decision>
		<cpt id="T16S">
			<state id="State0" />
			<state id="State1" />
			<probabilities>0.5 0.5</probabilities>
		</cpt>
		<decision id="W17C">
			<state id="Check" />
			<state id="Uncheck" />
		</decision>
		<cpt id="W17S">
			<state id="State0" />
			<state id="State1" />
			<probabilities>0.5 0.5</probabilities>
		</cpt>
		<decision id="R27C">
			<state id="Check" />
			<state id="Uncheck" />
		</decision>
		<cpt id="R27S">
			<state id="State0" />
			<state id="State1" />
			<probabilities>0.5 0.5</probabilities>
		</cpt>
		<cpt id="R22S">
			<state id="State0" />
			<state id="State1" />
			<probabilities>0.5 0.5</probabilities>
		</cpt>
		<decision id="R22C">
			<state id="Check" />
			<state id="Uncheck" />
		</decision>
		<cpt id="R22">
			<state id="True" />
			<state id="False" />
			<parents>R22C R22S S22 O22 O25 O31 O32 O33</parents>
			<probabilities>0.99 0.01 0.804953 0.195047 0.804953 0.195047 0.619907 0.380093 0.915981 0.084019 0.730935 0.269065 0.730935 0.269065 0.545888 0.454112 0.915981 0.084019 0.730935 0.269065 0.730935 0.269065 0.545888 0.454112 0.841963 0.158037 0.656916 0.343084 0.656916 0.343084 0.471869 0.528131 0.804953 0.195047 0.619907 0.380093 0.619907 0.380093 0.43486 0.56514 0.730935 0.269065 0.545888 0.454112 0.545888 0.454112 0.360841 0.639159 0.730935 0.269065 0.545888 0.454112 0.545888 0.454112 0.360841 0.639159 0.656916 0.343084 0.471869 0.528131 0.471869 0.528131 0.286822 0.713178 0.915981 0.084019 0.730935 0.269065 0.730935 0.269065 0.545888 0.454112 0.841963 0.158037 0.656916 0.343084 0.656916 0.343084 0.471869 0.528131 0.841963 0.158037 0.656916 0.343084 0.656916 0.343084 0.471869 0.528131 0.767944 0.232056 0.582897 0.417103 0.582897 0.417103 0.39785 0.60215 0.730935 0.269065 0.545888 0.454112 0.545888 0.454112 0.360841 0.639159 0.656916 0.343084 0.471869 0.528131 0.471869 0.528131 0.286822 0.713178 0.656916 0.343084 0.471869 0.528131 0.471869 0.528131 0.286822 0.713178 0.582897 0.417103 0.39785 0.60215 0.39785 0.60215 0.212804 0.787196 0.962243 0.037757 0.777196 0.222804 0.777196 0.222804 0.59215 0.40785 0.888224 0.111776 0.703178 0.296822 0.703178 0.296822 0.518131 0.481869 0.888224 0.111776 0.703178 0.296822 0.703178 0.296822 0.518131 0.481869 0.814206 0.185794 0.629159 0.370841 0.629159 0.370841 0.444112 0.555888 0.777196 0.222804 0.59215 0.40785 0.59215 0.40785 0.407103 0.592897 0.703178 0.296822 0.518131 0.481869 0.518131 0.481869 0.333084 0.666916 0.703178 0.296822 0.518131 0.481869 0.518131 0.481869 0.333084 0.666916 0.629159 0.370841 0.444112 0.555888 0.444112 0.555888 0.259065 0.740935 0.888224 0.111776 0.703178 0.296822 0.703178 0.296822 0.518131 0.481869 0.814206 0.185794 0.629159 0.370841 0.629159 0.370841 0.444112 0.555888 0.814206 0.185794 0.629159 0.370841 0.629159 0.370841 0.444112 0.555888 0.740187 0.259813 0.55514 0.44486 0.55514 0.44486 0.370093 0.629907 0.703178 0.296822 0.518131 0.481869 0.518131 0.481869 0.333084 0.666916 0.629159 0.370841 0.444112 0.555888 0.444112 0.555888 0.259065 0.740935 0.629159 0.370841 0.444112 0.555888 0.444112 0.555888 0.259065 0.740935 0.55514 0.44486 0.370093 0.629907 0.370093 0.629907 0.185047 0.814953 0.804953 0.195047 0.619907 0.380093 0.619907 0.380093 0.43486 0.56514 0.730935 0.269065 0.545888 0.454112 0.545888 0.454112 0.360841 0.639159 0.730935 0.269065 0.545888 0.454112 0.545888 0.454112 0.360841 0.639159 0.656916 0.343084 0.471869 0.528131 0.471869 0.528131 0.286822 0.713178 0.619907 0.380093 0.43486 0.56514 0.43486 0.56514 0.249813 0.750187 0.545888 0.454112 0.360841 0.639159 0.360841 0.639159 0.175794 0.824206 0.545888 0.454112 0.360841 0.639159 0.360841 0.639159 0.175794 0.824206 0.471869 0.528131 0.286822 0.713178 0.286822 0.713178 0.101776 0.898224 0.730935 0.269065 0.545888 0.454112 0.545888 0.454112 0.360841 0.639159 0.656916 0.343084 0.471869 0.528131 0.471869 0.528131 0.286822 0.713178 0.656916 0.343084 0.471869 0.528131 0.471869 0.528131 0.286822 0.713178 0.582897 0.417103 0.39785 0.60215 0.39785 0.60215 0.212804 0.787196 0.545888 0.454112 0.360841 0.639159 0.360841 0.639159 0.175794 0.824206 0.471869 0.528131 0.286822 0.713178 0.286822 0.713178 0.101776 0.898224 0.471869 0.528131 0.286822 0.713178 0.286822 0.713178 0.101776 0.898224 0.39785 0.60215 0.212804 0.787196 0.212804 0.787196 0.027757 0.972243 0.777196 0.222804 0.59215 0.40785 0.59215 0.40785 0.407103 0.592897 0.703178 0.296822 0.518131 0.481869 0.518131 0.481869 0.333084 0.666916 0.703178 0.296822 0.518131 0.481869 0.518131 0.481869 0.333084 0.666916 0.629159 0.370841 0.444112 0.555888 0.444112 0.555888 0.259065 0.740935 0.59215 0.40785 0.407103 0.592897 0.407103 0.592897 0.222056 0.777944 0.518131 0.481869 0.333084 0.666916 0.333084 0.666916 0.148037 0.851963 0.518131 0.481869 0.333084 0.666916 0.333084 0.666916 0.148037 0.851963 0.444112 0.555888 0.259065 0.740935 0.259065 0.740935 0.074019 0.925981 0.703178 0.296822 0.518131 0.481869 0.518131 0.481869 0.333084 0.666916 0.629159 0.370841 0.444112 0.555888 0.444112 0.555888 0.259065 0.740935 0.629159 0.370841 0.444112 0.555888 0.444112 0.555888 0.259065 0.740935 0.55514 0.44486 0.370093 0.629907 0.370093 0.629907 0.185047 0.814953 0.518131 0.481869 0.333084 0.666916 0.333084 0.666916 0.148037 0.851963 0.444112 0.555888 0.259065 0.740935 0.259065 0.740935 0.074019 0.925981 0.444112 0.555888 0.259065 0.740935 0.259065 0.740935 0.074019 0.925981 0.370093 0.629907 0.185047 0.814953 0.185047 0.814953 0.0 1.0</probabilities>
		</cpt>
		<cpt id="R27">
			<state id="True" />
			<state id="False" />
			<parents>R27C R27S O34 O35 R14 R22</parents>
			<probabilities>0.99 0.01 0.739367 0.260633 0.739367 0.260633 0.488734 0.511266 0.889747 0.110253 0.639114 0.360886 0.639114 0.360886 0.388481 0.611519 0.889747 0.110253 0.639114 0.360886 0.639114 0.360886 0.388481 0.611519 0.789494 0.210506 0.538861 0.461139 0.538861 0.461139 0.288228 0.711772 0.952405 0.047595 0.701772 0.298228 0.701772 0.298228 0.451139 0.548861 0.852152 0.147848 0.601519 0.398481 0.601519 0.398481 0.350886 0.649114 0.852152 0.147848 0.601519 0.398481 0.601519 0.398481 0.350886 0.649114 0.751899 0.248101 0.501266 0.498734 0.501266 0.498734 0.250633 0.749367 0.739367 0.260633 0.488734 0.511266 0.488734 0.511266 0.238101 0.761899 0.639114 0.360886 0.388481 0.611519 0.388481 0.611519 0.137848 0.862152 0.639114 0.360886 0.388481 0.611519 0.388481 0.611519 0.137848 0.862152 0.538861 0.461139 0.288228 0.711772 0.288228 0.711772 0.037595 0.962405 0.701772 0.298228 0.451139 0.548861 0.451139 0.548861 0.200506 0.799494 0.601519 0.398481 0.350886 0.649114 0.350886 0.649114 0.100253 0.899747 0.601519 0.398481 0.350886 0.649114 0.350886 0.649114 0.100253 0.899747 0.501266 0.498734 0.250633 0.749367 0.250633 0.749367 0.0 1.0</probabilities>
		</cpt>
		<decision id="R26C">
			<state id="Check" />
			<state id="Uncheck" />
		</decision>
		<cpt id="R26S">
			<state id="State0" />
			<state id="State1" />
			<probabilities>0.5 0.5</probabilities>
		</cpt>
		<cpt id="S31">
			<state id="True" />
			<state id="False" />
			<parents>S31C S31S S1 O3 S22 S23</parents>
			<probabilities>0.99 0.01 0.889747 0.110253 0.889747 0.110253 0.789494 0.210506 0.739367 0.260633 0.639114 0.360886 0.639114 0.360886 0.538861 0.461139 0.739367 0.260633 0.639114 0.360886 0.639114 0.360886 0.538861 0.461139 0.488734 0.511266 0.388481 0.611519 0.388481 0.611519 0.288228 0.711772 0.952405 0.047595 0.852152 0.147848 0.852152 0.147848 0.751899 0.248101 0.701772 0.298228 0.601519 0.398481 0.601519 0.398481 0.501266 0.498734 0.701772 0.298228 0.601519 0.398481 0.601519 0.398481 0.501266 0.498734 0.451139 0.548861 0.350886 0.649114 0.350886 0.649114 0.250633 0.749367 0.739367 0.260633 0.639114 0.360886 0.639114 0.360886 0.538861 0.461139 0.488734 0.511266 0.388481 0.611519 0.388481 0.611519 0.288228 0.711772 0.488734 0.511266 0.388481 0.611519 0.388481 0.611519 0.288228 0.711772 0.238101 0.761899 0.137848 0.862152 0.137848 0.862152 0.037595 0.962405 0.701772 0.298228 0.601519 0.398481 0.601519 0.398481 0.501266 0.498734 0.451139 0.548861 0.350886 0.649114 0.350886 0.649114 0.250633 0.749367 0.451139 0.548861 0.350886 0.649114 0.350886 0.649114 0.250633 0.749367 0.200506 0.799494 0.100253 0.899747 0.100253 0.899747 0.0 1.0</probabilities>
		</cpt>
		<cpt id="S32S">
			<state id="State0" />
			<state id="State1" />
			<probabilities>0.5 0.5</probabilities>
		</cpt>
		<decision id="S32C">
			<state id="Check" />
			<state id="Uncheck" />
		</decision>
		<cpt id="S32">
			<state id="True" />
			<state id="False" />
			<parents>S32C S32S S1 O3 S31 O34 O35 O32</parents>
			<probabilities>0.99 0.01 0.823613 0.176387 0.923445 0.076555 0.757059 0.242941 0.923445 0.076555 0.757059 0.242941 0.856891 0.143109 0.690504 0.309496 0.823613 0.176387 0.657227 0.342773 0.757059 0.242941 0.590672 0.409328 0.757059 0.242941 0.590672 0.409328 0.690504 0.309496 0.524118 0.475882 0.823613 0.176387 0.657227 0.342773 0.757059 0.242941 0.590672 0.409328 0.757059 0.242941 0.590672 0.409328 0.690504 0.309496 0.524118 0.475882 0.657227 0.342773 0.49084 0.50916 0.590672 0.409328 0.424286 0.575714 0.590672 0.409328 0.424286 0.575714 0.524118 0.475882 0.357731 0.642269 0.823613 0.176387 0.657227 0.342773 0.757059 0.242941 0.590672 0.409328 0.757059 0.242941 0.590672 0.409328 0.690504 0.309496 0.524118 0.475882 0.657227 0.342773 0.49084 0.50916 0.590672 0.409328 0.424286 0.575714 0.590672 0.409328 0.424286 0.575714 0.524118 0.475882 0.357731 0.642269 0.657227 0.342773 0.49084 0.50916 0.590672 0.409328 0.424286 0.575714 0.590672 0.409328 0.424286 0.575714 0.524118 0.475882 0.357731 0.642269 0.49084 0.50916 0.324454 0.675546 0.424286 0.575714 0.257899 0.742101 0.424286 0.575714 0.257899 0.742101 0.357731 0.642269 0.191345 0.808655 0.965042 0.034958 0.798655 0.201345 0.898487 0.101513 0.732101 0.267899 0.898487 0.101513 0.732101 0.267899 0.831933 0.168067 0.665546 0.334454 0.798655 0.201345 0.632269 0.367731 0.732101 0.267899 0.565714 0.434286 0.732101 0.267899 0.565714 0.434286 0.665546 0.334454 0.49916 0.50084 0.798655 0.201345 0.632269 0.367731 0.732101 0.267899 0.565714 0.434286 0.732101 0.267899 0.565714 0.434286 0.665546 0.334454 0.49916 0.50084 0.632269 0.367731 0.465882 0.534118 0.565714 0.434286 0.399328 0.600672 0.565714 0.434286 0.399328 0.600672 0.49916 0.50084 0.332773 0.667227 0.798655 0.201345 0.632269 0.367731 0.732101 0.267899 0.565714 0.434286 0.732101 0.267899 0.565714 0.434286 0.665546 0.334454 0.49916 0.50084 0.632269 0.367731 0.465882 0.534118 0.565714 0.434286 0.399328 0.600672 0.565714 0.434286 0.399328 0.600672 0.49916 0.50084 0.332773 0.667227 0.632269 0.367731 0.465882 0.534118 0.565714 0.434286 0.399328 0.600672 0.565714 0.434286 0.399328 0.600672 0.49916 0.50084 0.332773 0.667227 0.465882 0.534118 0.299496 0.700504 0.399328 0.600672 0.232941 0.767059 0.399328 0.600672 0.232941 0.767059 0.332773 0.667227 0.166387 0.833613 0.823613 0.176387 0.657227 0.342773 0.757059 0.242941 0.590672 0.409328 0.757059 0.242941 0.590672 0.409328 0.690504 0.309496 0.524118 0.475882 0.657227 0.342773 0.49084 0.50916 0.590672 0.409328 0.424286 0.575714 0.590672 0.409328 0.424286 0.575714 0.524118 0.475882 0.357731 0.642269 0.657227 0.342773 0.49084 0.50916 0.590672 0.409328 0.424286 0.575714 0.590672 0.409328 0.424286 0.575714 0.524118 0.475882 0.357731 0.642269 0.49084 0.50916 0.324454 0.675546 0.424286 0.575714 0.257899 0.742101 0.424286 0.575714 0.257899 0.742101 0.357731 0.642269 0.191345 0.808655 0.657227 0.342773 0.49084 0.50916 0.590672 0.409328 0.424286 0.575714 0.590672 0.409328 0.424286 0.575714 0.524118 0.475882 0.357731 0.642269 0.49084 0.50916 0.324454 0.675546 0.424286 0.575714 0.257899 0.742101 0.424286 0.575714 0.257899 0.742101 0.357731 0.642269 0.191345 0.808655 0.49084 0.50916 0.324454 0.675546 0.424286 0.575714 0.257899 0.742101 0.424286 0.575714 0.257899 0.742101 0.357731 0.642269 0.191345 0.808655 0.324454 0.675546 0.158067 0.841933 0.257899 0.742101 0.091513 0.908487 0.257899 0.742101 0.091513 0.908487 0.191345 0.808655 0.024958 0.975042 0.798655 0.201345 0.632269 0.367731 0.732101 0.267899 0.565714 0.434286 0.732101 0.267899 0.565714 0.434286 0.665546 0.334454 0.49916 0.50084 0.632269 0.367731 0.465882 0.534118 0.565714 0.434286 0.399328 0.600672 0.565714 0.434286 0.399328 0.600672 0.49916 0.50084 0.332773 0.667227 0.632269 0.367731 0.465882 0.534118 0.565714 0.434286 0.399328 0.600672 0.565714 0.434286 0.399328 0.600672 0.49916 0.50084 0.332773 0.667227 0.465882 0.534118 0.299496 0.700504 0.399328 0.600672 0.232941 0.767059 0.399328 0.600672 0.232941 0.767059 0.332773 0.667227 0.166387 0.833613 0.632269 0.367731 0.465882 0.534118 0.565714 0.434286 0.399328 0.600672 0.565714 0.434286 0.399328 0.600672 0.49916 0.50084 0.332773 0.667227 0.465882 0.534118 0.299496 0.700504 0.399328 0.600672 0.232941 0.767059 0.399328 0.600672 0.232941 0.767059 0.332773 0.667227 0.166387 0.833613 0.465882 0.534118 0.299496 0.700504 0.399328 0.600672 0.232941 0.767059 0.399328 0.600672 0.232941 0.767059 0.332773 0.667227 0.166387 0.833613 0.299496 0.700504 0.133109 0.866891 0.232941 0.767059 0.066555 0.933445 0.232941 0.767059 0.066555 0.933445 0.166387 0.833613 0.0 1.0</probabilities>
		</cpt>
		<decision id="S33C">
			<state id="Check" />
			<state id="Uncheck" />
		</decision>
		<cpt id="S33">
			<state id="True" />
			<state id="False" />
			<parents>S33C S33S S1 O3 S22 S23 O32 O34 O35</parents>
			<probabilities>0.99 0.01 0.927638 0.072362 0.834094 0.165906 0.771732 0.228268 0.927638 0.072362 0.865276 0.134724 0.771732 0.228268 0.70937 0.29063 0.834094 0.165906 0.771732 0.228268 0.678189 0.321811 0.615827 0.384173 0.771732 0.228268 0.70937 0.29063 0.615827 0.384173 0.553465 0.446535 0.927638 0.072362 0.865276 0.134724 0.771732 0.228268 0.70937 0.29063 0.865276 0.134724 0.802913 0.197087 0.70937 0.29063 0.647008 0.352992 0.771732 0.228268 0.70937 0.29063 0.615827 0.384173 0.553465 0.446535 0.70937 0.29063 0.647008 0.352992 0.553465 0.446535 0.491102 0.508898 0.834094 0.165906 0.771732 0.228268 0.678189 0.321811 0.615827 0.384173 0.771732 0.228268 0.70937 0.29063 0.615827 0.384173 0.553465 0.446535 0.678189 0.321811 0.615827 0.384173 0.522283 0.477717 0.459921 0.540079 0.615827 0.384173 0.553465 0.446535 0.459921 0.540079 0.397559 0.602441 0.771732 0.228268 0.70937 0.29063 0.615827 0.384173 0.553465 0.446535 0.70937 0.29063 0.647008 0.352992 0.553465 0.446535 0.491102 0.508898 0.615827 0.384173 0.553465 0.446535 0.459921 0.540079 0.397559 0.602441 0.553465 0.446535 0.491102 0.508898 0.397559 0.602441 0.335197 0.664803 0.834094 0.165906 0.771732 0.228268 0.678189 0.321811 0.615827 0.384173 0.771732 0.228268 0.70937 0.29063 0.615827 0.384173 0.553465 0.446535 0.678189 0.321811 0.615827 0.384173 0.522283 0.477717 0.459921 0.540079 0.615827 0.384173 0.553465 0.446535 0.459921 0.540079 0.397559 0.602441 0.771732 0.228268 0.70937 0.29063 0.615827 0.384173 0.553465 0.446535 0.70937 0.29063 0.647008 0.352992 0.553465 0.446535 0.491102 0.508898 0.615827 0.384173 0.553465 0.446535 0.459921 0.540079 0.397559 0.602441 0.553465 0.446535 0.491102 0.508898 0.397559 0.602441 0.335197 0.664803 0.678189 0.321811 0.615827 0.384173 0.522283 0.477717 0.459921 0.540079 0.615827 0.384173 0.553465 0.446535 0.459921 0.540079 0.397559 0.602441 0.522283 0.477717 0.459921 0.540079 0.366378 0.633622 0.304016 0.695984 0.459921 0.540079 0.397559 0.602441 0.304016 0.695984 0.241654 0.758346 0.615827 0.384173 0.553465 0.446535 0.459921 0.540079 0.397559 0.602441 0.553465 0.446535 0.491102 0.508898 0.397559 0.602441 0.335197 0.664803 0.459921 0.540079 0.397559 0.602441 0.304016 0.695984 0.241654 0.758346 0.397559 0.602441 0.335197 0.664803 0.241654 0.758346 0.179291 0.820709 0.966614 0.033386 0.904252 0.095748 0.810709 0.189291 0.748346 0.251654 0.904252 0.095748 0.84189 0.15811 0.748346 0.251654 0.685984 0.314016 0.810709 0.189291 0.748346 0.251654 0.654803 0.345197 0.592441 0.407559 0.748346 0.251654 0.685984 0.314016 0.592441 0.407559 0.530079 0.469921 0.904252 0.095748 0.84189 0.15811 0.748346 0.251654 0.685984 0.314016 0.84189 0.15811 0.779528 0.220472 0.685984 0.314016 0.623622 0.376378 0.748346 0.251654 0.685984 0.314016 0.592441 0.407559 0.530079 0.469921 0.685984 0.314016 0.623622 0.376378 0.530079 0.469921 0.467717 0.532283 0.810709 0.189291 0.748346 0.251654 0.654803 0.345197 0.592441 0.407559 0.748346 0.251654 0.685984 0.314016 0.592441 0.407559 0.530079 0.469921 0.654803 0.345197 0.592441 0.407559 0.498898 0.501102 0.436535 0.563465 0.592441 0.407559 0.530079 0.469921 0.436535 0.563465 0.374173 0.625827 0.748346 0.251654 0.685984 0.314016 0.592441 0.407559 0.530079 0.469921 0.685984 0.314016 0.623622 0.376378 0.530079 0.469921 0.467717 0.532283 0.592441 0.407559 0.530079 0.469921 0.436535 0.563465 0.374173 0.625827 0.530079 0.469921 0.467717 0.532283 0.374173 0.625827 0.311811 0.688189 0.810709 0.189291 0.748346 0.251654 0.654803 0.345197 0.592441 0.407559 0.748346 0.251654 0.685984 0.314016 0.592441 0.407559 0.530079 0.469921 0.654803 0.345197 0.592441 0.407559 0.498898 0.501102 0.436535 0.563465 0.592441 0.407559 0.530079 0.469921 0.436535 0.563465 0.374173 0.625827 0.748346 0.251654 0.685984 0.314016 0.592441 0.407559 0.530079 0.469921 0.685984 0.314016 0.623622 0.376378 0.530079 0.469921 0.467717 0.532283 0.592441 0.407559 0.530079 0.469921 0.436535 0.563465 0.374173 0.625827 0.530079 0.469921 0.467717 0.532283 0.374173 0.625827 0.311811 0.688189 0.654803 0.345197 0.592441 0.407559 0.498898 0.501102 0.436535 0.563465 0.592441 0.407559 0.530079 0.469921 0.436535 0.563465 0.374173 0.625827 0.498898 0.501102 0.436535 0.563465 0.342992 0.657008 0.28063 0.71937 0.436535 0.563465 0.374173 0.625827 0.28063 0.71937 0.218268 0.781732 0.592441 0.407559 0.530079 0.469921 0.436535 0.563465 0.374173 0.625827 0.530079 0.469921 0.467717 0.532283 0.374173 0.625827 0.311811 0.688189 0.436535 0.563465 0.374173 0.625827 0.28063 0.71937 0.218268 0.781732 0.374173 0.625827 0.311811 0.688189 0.218268 0.781732 0.155906 0.844094 0.834094 0.165906 0.771732 0.228268 0.678189 0.321811 0.615827 0.384173 0.771732 0.228268 0.70937 0.29063 0.615827 0.384173 0.553465 0.446535 0.678189 0.321811 0.615827 0.384173 0.522283 0.477717 0.459921 0.540079 0.615827 0.384173 0.553465 0.446535 0.459921 0.540079 0.397559 0.602441 0.771732 0.228268 0.70937 0.29063 0.615827 0.384173 0.553465 0.446535 0.70937 0.29063 0.647008 0.352992 0.553465 0.446535 0.491102 0.508898 0.615827 0.384173 0.553465 0.446535 0.459921 0.540079 0.397559 0.602441 0.553465 0.446535 0.491102 0.508898 0.397559 0.602441 0.335197 0.664803 0.678189 0.321811 0.615827 0.384173 0.522283 0.477717 0.459921 0.540079 0.615827 0.384173 0.553465 0.446535 0.459921 0.540079 0.397559 0.602441 0.522283 0.477717 0.459921 0.540079 0.366378 0.633622 0.304016 0.695984 0.459921 0.540079 0.397559 0.602441 0.304016 0.695984 0.241654 0.758346 0.615827 0.384173 0.553465 0.446535 0.459921 0.540079 0.397559 0.602441 0.553465 0.446535 0.491102 0.508898 0.397559 0.602441 0.335197 0.664803 0.459921 0.540079 0.397559 0.602441 0.304016 0.695984 0.241654 0.758346 0.397559 0.602441 0.335197 0.664803 0.241654 0.758346 0.179291 0.820709 0.678189 0.321811 0.615827 0.384173 0.522283 0.477717 0.459921 0.540079 0.615827 0.384173 0.553465 0.446535 0.459921 0.540079 0.397559 0.602441 0.522283 0.477717 0.459921 0.540079 0.366378 0.633622 0.304016 0.695984 0.459921 0.540079 0.397559 0.602441 0.304016 0.695984 0.241654 0.758346 0.615827 0.384173 0.553465 0.446535 0.459921 0.540079 0.397559 0.602441 0.553465 0.446535 0.491102 0.508898 0.397559 0.602441 0.335197 0.664803 0.459921 0.540079 0.397559 0.602441 0.304016 0.695984 0.241654 0.758346 0.397559 0.602441 0.335197 0.664803 0.241654 0.758346 0.179291 0.820709 0.522283 0.477717 0.459921 0.540079 0.366378 0.633622 0.304016 0.695984 0.459921 0.540079 0.397559 0.602441 0.304016 0.695984 0.241654 0.758346 0.366378 0.633622 0.304016 0.695984 0.210472 0.789528 0.14811 0.85189 0.304016 0.695984 0.241654 0.758346 0.14811 0.85189 0.085748 0.914252 0.459921 0.540079 0.397559 0.602441 0.304016 0.695984 0.241654 0.758346 0.397559 0.602441 0.335197 0.664803 0.241654 0.758346 0.179291 0.820709 0.304016 0.695984 0.241654 0.758346 0.14811 0.85189 0.085748 0.914252 0.241654 0.758346 0.179291 0.820709 0.085748 0.914252 0.023386 0.976614 0.810709 0.189291 0.748346 0.251654 0.654803 0.345197 0.592441 0.407559 0.748346 0.251654 0.685984 0.314016 0.592441 0.407559 0.530079 0.469921 0.654803 0.345197 0.592441 0.407559 0.498898 0.501102 0.436535 0.563465 0.592441 0.407559 0.530079 0.469921 0.436535 0.563465 0.374173 0.625827 0.748346 0.251654 0.685984 0.314016 0.592441 0.407559 0.530079 0.469921 0.685984 0.314016 0.623622 0.376378 0.530079 0.469921 0.467717 0.532283 0.592441 0.407559 0.530079 0.469921 0.436535 0.563465 0.374173 0.625827 0.530079 0.469921 0.467717 0.532283 0.374173 0.625827 0.311811 0.688189 0.654803 0.345197 0.592441 0.407559 0.498898 0.501102 0.436535 0.563465 0.592441 0.407559 0.530079 0.469921 0.436535 0.563465 0.374173 0.625827 0.498898 0.501102 0.436535 0.563465 0.342992 0.657008 0.28063 0.71937 0.436535 0.563465 0.374173 0.625827 0.28063 0.71937 0.218268 0.781732 0.592441 0.407559 0.530079 0.469921 0.436535 0.563465 0.374173 0.625827 0.530079 0.469921 0.467717 0.532283 0.374173 0.625827 0.311811 0.688189 0.436535 0.563465 0.374173 0.625827 0.28063 0.71937 0.218268 0.781732 0.374173 0.625827 0.311811 0.688189 0.218268 0.781732 0.155906 0.844094 0.654803 0.345197 0.592441 0.407559 0.498898 0.501102 0.436535 0.563465 0.592441 0.407559 0.530079 0.469921 0.436535 0.563465 0.374173 0.625827 0.498898 0.501102 0.436535 0.563465 0.342992 0.657008 0.28063 0.71937 0.436535 0.563465 0.374173 0.625827 0.28063 0.71937 0.218268 0.781732 0.592441 0.407559 0.530079 0.469921 0.436535 0.563465 0.374173 0.625827 0.530079 0.469921 0.467717 0.532283 0.374173 0.625827 0.311811 0.688189 0.436535 0.563465 0.374173 0.625827 0.28063 0.71937 0.218268 0.781732 0.374173 0.625827 0.311811 0.688189 0.218268 0.781732 0.155906 0.844094 0.498898 0.501102 0.436535 0.563465 0.342992 0.657008 0.28063 0.71937 0.436535 0.563465 0.374173 0.625827 0.28063 0.71937 0.218268 0.781732 0.342992 0.657008 0.28063 0.71937 0.187087 0.812913 0.124724 0.875276 0.28063 0.71937 0.218268 0.781732 0.124724 0.875276 0.062362 0.937638 0.436535 0.563465 0.374173 0.625827 0.28063 0.71937 0.218268 0.781732 0.374173 0.625827 0.311811 0.688189 0.218268 0.781732 0.155906 0.844094 0.28063 0.71937 0.218268 0.781732 0.124724 0.875276 0.062362 0.937638 0.218268 0.781732 0.155906 0.844094 0.062362 0.937638 0.0 1.0</probabilities>
		</cpt>
		<decision id="R23C">
			<state id="Check" />
			<state id="Uncheck" />
		</decision>
		<cpt id="R23S">
			<state id="State0" />
			<state id="State1" />
			<probabilities>0.5 0.5</probabilities>
		</cpt>
		<cpt id="R23">
			<state id="True" />
			<state id="False" />
			<parents>R23C R23S S22 O21 O34 O35 R22</parents>
			<probabilities>0.99 0.01 0.762414 0.237586 0.762414 0.237586 0.534828 0.465172 0.762414 0.237586 0.534828 0.465172 0.534828 0.465172 0.307241 0.692759 0.898966 0.101034 0.671379 0.328621 0.671379 0.328621 0.443793 0.556207 0.671379 0.328621 0.443793 0.556207 0.443793 0.556207 0.216207 0.783793 0.898966 0.101034 0.671379 0.328621 0.671379 0.328621 0.443793 0.556207 0.671379 0.328621 0.443793 0.556207 0.443793 0.556207 0.216207 0.783793 0.807931 0.192069 0.580345 0.419655 0.580345 0.419655 0.352759 0.647241 0.580345 0.419655 0.352759 0.647241 0.352759 0.647241 0.125172 0.874828 0.955862 0.044138 0.728276 0.271724 0.728276 0.271724 0.50069 0.49931 0.728276 0.271724 0.50069 0.49931 0.50069 0.49931 0.273103 0.726897 0.864828 0.135172 0.637241 0.362759 0.637241 0.362759 0.409655 0.590345 0.637241 0.362759 0.409655 0.590345 0.409655 0.590345 0.182069 0.817931 0.864828 0.135172 0.637241 0.362759 0.637241 0.362759 0.409655 0.590345 0.637241 0.362759 0.409655 0.590345 0.409655 0.590345 0.182069 0.817931 0.773793 0.226207 0.546207 0.453793 0.546207 0.453793 0.318621 0.681379 0.546207 0.453793 0.318621 0.681379 0.318621 0.681379 0.091034 0.908966 0.898966 0.101034 0.671379 0.328621 0.671379 0.328621 0.443793 0.556207 0.671379 0.328621 0.443793 0.556207 0.443793 0.556207 0.216207 0.783793 0.807931 0.192069 0.580345 0.419655 0.580345 0.419655 0.352759 0.647241 0.580345 0.419655 0.352759 0.647241 0.352759 0.647241 0.125172 0.874828 0.807931 0.192069 0.580345 0.419655 0.580345 0.419655 0.352759 0.647241 0.580345 0.419655 0.352759 0.647241 0.352759 0.647241 0.125172 0.874828 0.716897 0.283103 0.48931 0.51069 0.48931 0.51069 0.261724 0.738276 0.48931 0.51069 0.261724 0.738276 0.261724 0.738276 0.034138 0.965862 0.864828 0.135172 0.637241 0.362759 0.637241 0.362759 0.409655 0.590345 0.637241 0.362759 0.409655 0.590345 0.409655 0.590345 0.182069 0.817931 0.773793 0.226207 0.546207 0.453793 0.546207 0.453793 0.318621 0.681379 0.546207 0.453793 0.318621 0.681379 0.318621 0.681379 0.091034 0.908966 0.773793 0.226207 0.546207 0.453793 0.546207 0.453793 0.318621 0.681379 0.546207 0.453793 0.318621 0.681379 0.318621 0.681379 0.091034 0.908966 0.682759 0.317241 0.455172 0.544828 0.455172 0.544828 0.227586 0.772414 0.455172 0.544828 0.227586 0.772414 0.227586 0.772414 0.0 1.0</probabilities>
		</cpt>
		<decision id="R25C">
			<state id="Check" />
			<state id="Uncheck" />
		</decision>
		<cpt id="R25S">
			<state id="State0" />
			<state id="State1" />
			<probabilities>0.5 0.5</probabilities>
		</cpt>
		<cpt id="R25">
			<state id="True" />
			<state id="False" />
			<parents>R25C R25S S31 S22</parents>
			<probabilities>0.99 0.01 0.786923 0.213077 0.786923 0.213077 0.583846 0.416154 0.913846 0.086154 0.710769 0.289231 0.710769 0.289231 0.507692 0.492308 0.482308 0.517692 0.279231 0.720769 0.279231 0.720769 0.076154 0.923846 0.406154 0.593846 0.203077 0.796923 0.203077 0.796923 0.0 1.0</probabilities>
		</cpt>
		<cpt id="R26">
			<state id="True" />
			<state id="False" />
			<parents>R26C R26S S31 S32 S33 R23 R25 R27</parents>
			<probabilities>0.99 0.01 0.923445 0.076555 0.823613 0.176387 0.757059 0.242941 0.823613 0.176387 0.757059 0.242941 0.657227 0.342773 0.590672 0.409328 0.823613 0.176387 0.757059 0.242941 0.657227 0.342773 0.590672 0.409328 0.657227 0.342773 0.590672 0.409328 0.49084 0.50916 0.424286 0.575714 0.823613 0.176387 0.757059 0.242941 0.657227 0.342773 0.590672 0.409328 0.657227 0.342773 0.590672 0.409328 0.49084 0.50916 0.424286 0.575714 0.657227 0.342773 0.590672 0.409328 0.49084 0.50916 0.424286 0.575714 0.49084 0.50916 0.424286 0.575714 0.324454 0.675546 0.257899 0.742101 0.923445 0.076555 0.856891 0.143109 0.757059 0.242941 0.690504 0.309496 0.757059 0.242941 0.690504 0.309496 0.590672 0.409328 0.524118 0.475882 0.757059 0.242941 0.690504 0.309496 0.590672 0.409328 0.524118 0.475882 0.590672 0.409328 0.524118 0.475882 0.424286 0.575714 0.357731 0.642269 0.757059 0.242941 0.690504 0.309496 0.590672 0.409328 0.524118 0.475882 0.590672 0.409328 0.524118 0.475882 0.424286 0.575714 0.357731 0.642269 0.590672 0.409328 0.524118 0.475882 0.424286 0.575714 0.357731 0.642269 0.424286 0.575714 0.357731 0.642269 0.257899 0.742101 0.191345 0.808655 0.965042 0.034958 0.898487 0.101513 0.798655 0.201345 0.732101 0.267899 0.798655 0.201345 0.732101 0.267899 0.632269 0.367731 0.565714 0.434286 0.798655 0.201345 0.732101 0.267899 0.632269 0.367731 0.565714 0.434286 0.632269 0.367731 0.565714 0.434286 0.465882 0.534118 0.399328 0.600672 0.798655 0.201345 0.732101 0.267899 0.632269 0.367731 0.565714 0.434286 0.632269 0.367731 0.565714 0.434286 0.465882 0.534118 0.399328 0.600672 0.632269 0.367731 0.565714 0.434286 0.465882 0.534118 0.399328 0.600672 0.465882 0.534118 0.399328 0.600672 0.299496 0.700504 0.232941 0.767059 0.898487 0.101513 0.831933 0.168067 0.732101 0.267899 0.665546 0.334454 0.732101 0.267899 0.665546 0.334454 0.565714 0.434286 0.49916 0.50084 0.732101 0.267899 0.665546 0.334454 0.565714 0.434286 0.49916 0.50084 0.565714 0.434286 0.49916 0.50084 0.399328 0.600672 0.332773 0.667227 0.732101 0.267899 0.665546 0.334454 0.565714 0.434286 0.49916 0.50084 0.565714 0.434286 0.49916 0.50084 0.399328 0.600672 0.332773 0.667227 0.565714 0.434286 0.49916 0.50084 0.399328 0.600672 0.332773 0.667227 0.399328 0.600672 0.332773 0.667227 0.232941 0.767059 0.166387 0.833613 0.823613 0.176387 0.757059 0.242941 0.657227 0.342773 0.590672 0.409328 0.657227 0.342773 0.590672 0.409328 0.49084 0.50916 0.424286 0.575714 0.657227 0.342773 0.590672 0.409328 0.49084 0.50916 0.424286 0.575714 0.49084 0.50916 0.424286 0.575714 0.324454 0.675546 0.257899 0.742101 0.657227 0.342773 0.590672 0.409328 0.49084 0.50916 0.424286 0.575714 0.49084 0.50916 0.424286 0.575714 0.324454 0.675546 0.257899 0.742101 0.49084 0.50916 0.424286 0.575714 0.324454 0.675546 0.257899 0.742101 0.324454 0.675546 0.257899 0.742101 0.158067 0.841933 0.091513 0.908487 0.757059 0.242941 0.690504 0.309496 0.590672 0.409328 0.524118 0.475882 0.590672 0.409328 0.524118 0.475882 0.424286 0.575714 0.357731 0.642269 0.590672 0.409328 0.524118 0.475882 0.424286 0.575714 0.357731 0.642269 0.424286 0.575714 0.357731 0.642269 0.257899 0.742101 0.191345 0.808655 0.590672 0.409328 0.524118 0.475882 0.424286 0.575714 0.357731 0.642269 0.424286 0.575714 0.357731 0.642269 0.257899 0.742101 0.191345 0.808655 0.424286 0.575714 0.357731 0.642269 0.257899 0.742101 0.191345 0.808655 0.257899 0.742101 0.191345 0.808655 0.091513 0.908487 0.024958 0.975042 0.798655 0.201345 0.732101 0.267899 0.632269 0.367731 0.565714 0.434286 0.632269 0.367731 0.565714 0.434286 0.465882 0.534118 0.399328 0.600672 0.632269 0.367731 0.565714 0.434286 0.465882 0.534118 0.399328 0.600672 0.465882 0.534118 0.399328 0.600672 0.299496 0.700504 0.232941 0.767059 0.632269 0.367731 0.565714 0.434286 0.465882 0.534118 0.399328 0.600672 0.465882 0.534118 0.399328 0.600672 0.299496 0.700504 0.232941 0.767059 0.465882 0.534118 0.399328 0.600672 0.299496 0.700504 0.232941 0.767059 0.299496 0.700504 0.232941 0.767059 0.133109 0.866891 0.066555 0.933445 0.732101 0.267899 0.665546 0.334454 0.565714 0.434286 0.49916 0.50084 0.565714 0.434286 0.49916 0.50084 0.399328 0.600672 0.332773 0.667227 0.565714 0.434286 0.49916 0.50084 0.399328 0.600672 0.332773 0.667227 0.399328 0.600672 0.332773 0.667227 0.232941 0.767059 0.166387 0.833613 0.565714 0.434286 0.49916 0.50084 0.399328 0.600672 0.332773 0.667227 0.399328 0.600672 0.332773 0.667227 0.232941 0.767059 0.166387 0.833613 0.399328 0.600672 0.332773 0.667227 0.232941 0.767059 0.166387 0.833613 0.232941 0.767059 0.166387 0.833613 0.066555 0.933445 0.0 1.0</probabilities>
		</cpt>
		<cpt id="W17">
			<state id="True" />
			<state id="False" />
			<parents>W17C W17S R27 O34 T11 R26</parents>
			<probabilities>0.99 0.01 0.889747 0.110253 0.739367 0.260633 0.639114 0.360886 0.739367 0.260633 0.639114 0.360886 0.488734 0.511266 0.388481 0.611519 0.739367 0.260633 0.639114 0.360886 0.488734 0.511266 0.388481 0.611519 0.488734 0.511266 0.388481 0.611519 0.238101 0.761899 0.137848 0.862152 0.952405 0.047595 0.852152 0.147848 0.701772 0.298228 0.601519 0.398481 0.701772 0.298228 0.601519 0.398481 0.451139 0.548861 0.350886 0.649114 0.701772 0.298228 0.601519 0.398481 0.451139 0.548861 0.350886 0.649114 0.451139 0.548861 0.350886 0.649114 0.200506 0.799494 0.100253 0.899747 0.889747 0.110253 0.789494 0.210506 0.639114 0.360886 0.538861 0.461139 0.639114 0.360886 0.538861 0.461139 0.388481 0.611519 0.288228 0.711772 0.639114 0.360886 0.538861 0.461139 0.388481 0.611519 0.288228 0.711772 0.388481 0.611519 0.288228 0.711772 0.137848 0.862152 0.037595 0.962405 0.852152 0.147848 0.751899 0.248101 0.601519 0.398481 0.501266 0.498734 0.601519 0.398481 0.501266 0.498734 0.350886 0.649114 0.250633 0.749367 0.601519 0.398481 0.501266 0.498734 0.350886 0.649114 0.250633 0.749367 0.350886 0.649114 0.250633 0.749367 0.100253 0.899747 0.0 1.0</probabilities>
		</cpt>
		<decision id="WW14C">
			<state id="Check" />
			<state id="Uncheck" />
		</decision>
		<cpt id="WW14S">
			<state id="State0" />
			<state id="State1" />
			<probabilities>0.5 0.5</probabilities>
		</cpt>
		<cpt id="WW11S">
			<state id="State0" />
			<state id="State1" />
			<probabilities>0.5 0.5</probabilities>
		</cpt>
		<decision id="WW11C">
			<state id="Check" />
			<state id="Uncheck" />
		</decision>
		<cpt id="T16">
			<state id="True" />
			<state id="False" />
			<parents>T16C T16S T11 W17</parents>
			<probabilities>0.99 0.01 0.786923 0.213077 0.482308 0.517692 0.279231 0.720769 0.913846 0.086154 0.710769 0.289231 0.406154 0.593846 0.203077 0.796923 0.786923 0.213077 0.583846 0.416154 0.279231 0.720769 0.076154 0.923846 0.710769 0.289231 0.507692 0.492308 0.203077 0.796923 0.0 1.0</probabilities>
		</cpt>
		<decision id="T17C">
			<state id="Check" />
			<state id="Uncheck" />
		</decision>
		<cpt id="T17S">
			<state id="State0" />
			<state id="State1" />
			<probabilities>0.5 0.5</probabilities>
		</cpt>
		<cpt id="O41S">
			<state id="State0" />
			<state id="State1" />
			<probabilities>0.5 0.5</probabilities>
		</cpt>
		<decision id="O41C">
			<state id="Check" />
			<state id="Uncheck" />
		</decision>
		<cpt id="O41">
			<state id="True" />
			<state id="False" />
			<parents>O41C O41S O3 S1 O2 O32 T11</parents>
			<probabilities>0.99 0.01 0.958404 0.041596 0.905745 0.094255 0.874149 0.125851 0.779362 0.220638 0.747766 0.252234 0.695106 0.304894 0.663511 0.336489 0.779362 0.220638 0.747766 0.252234 0.695106 0.304894 0.663511 0.336489 0.568723 0.431277 0.537128 0.462872 0.484468 0.515532 0.452872 0.547128 0.779362 0.220638 0.747766 0.252234 0.695106 0.304894 0.663511 0.336489 0.568723 0.431277 0.537128 0.462872 0.484468 0.515532 0.452872 0.547128 0.568723 0.431277 0.537128 0.462872 0.484468 0.515532 0.452872 0.547128 0.358085 0.641915 0.326489 0.673511 0.27383 0.72617 0.242234 0.757766 0.958404 0.041596 0.926809 0.073191 0.874149 0.125851 0.842553 0.157447 0.747766 0.252234 0.71617 0.28383 0.663511 0.336489 0.631915 0.368085 0.747766 0.252234 0.71617 0.28383 0.663511 0.336489 0.631915 0.368085 0.537128 0.462872 0.505532 0.494468 0.452872 0.547128 0.421277 0.578723 0.747766 0.252234 0.71617 0.28383 0.663511 0.336489 0.631915 0.368085 0.537128 0.462872 0.505532 0.494468 0.452872 0.547128 0.421277 0.578723 0.537128 0.462872 0.505532 0.494468 0.452872 0.547128 0.421277 0.578723 0.326489 0.673511 0.294894 0.705106 0.242234 0.757766 0.210638 0.789362 0.779362 0.220638 0.747766 0.252234 0.695106 0.304894 0.663511 0.336489 0.568723 0.431277 0.537128 0.462872 0.484468 0.515532 0.452872 0.547128 0.568723 0.431277 0.537128 0.462872 0.484468 0.515532 0.452872 0.547128 0.358085 0.641915 0.326489 0.673511 0.27383 0.72617 0.242234 0.757766 0.568723 0.431277 0.537128 0.462872 0.484468 0.515532 0.452872 0.547128 0.358085 0.641915 0.326489 0.673511 0.27383 0.72617 0.242234 0.757766 0.358085 0.641915 0.326489 0.673511 0.27383 0.72617 0.242234 0.757766 0.147447 0.852553 0.115851 0.884149 0.063191 0.936809 0.031596 0.968404 0.747766 0.252234 0.71617 0.28383 0.663511 0.336489 0.631915 0.368085 0.537128 0.462872 0.505532 0.494468 0.452872 0.547128 0.421277 0.578723 0.537128 0.462872 0.505532 0.494468 0.452872 0.547128 0.421277 0.578723 0.326489 0.673511 0.294894 0.705106 0.242234 0.757766 0.210638 0.789362 0.537128 0.462872 0.505532 0.494468 0.452872 0.547128 0.421277 0.578723 0.326489 0.673511 0.294894 0.705106 0.242234 0.757766 0.210638 0.789362 0.326489 0.673511 0.294894 0.705106 0.242234 0.757766 0.210638 0.789362 0.115851 0.884149 0.084255 0.915745 0.031596 0.968404 0.0 1.0</probabilities>
		</cpt>
		<cpt id="R31S">
			<state id="State0" />
			<state id="State1" />
			<probabilities>0.5 0.5</probabilities>
		</cpt>
		<decision id="R31C">
			<state id="Check" />
			<state id="Uncheck" />
		</decision>
		<cpt id="R31">
			<state id="True" />
			<state id="False" />
			<parents>R31C R31S R25 R26</parents>
			<probabilities>0.99 0.01 0.601765 0.398235 0.601765 0.398235 0.213529 0.786471 0.931765 0.068235 0.543529 0.456471 0.543529 0.456471 0.155294 0.844706 0.834706 0.165294 0.446471 0.553529 0.446471 0.553529 0.058235 0.941765 0.776471 0.223529 0.388235 0.611765 0.388235 0.611765 0.0 1.0</probabilities>
		</cpt>
		<cpt id="T17">
			<state id="True" />
			<state id="False" />
			<parents>T17C T17S T11 O41 R31 T14</parents>
			<probabilities>0.99 0.01 0.797767 0.202233 0.797767 0.202233 0.605534 0.394466 0.797767 0.202233 0.605534 0.394466 0.605534 0.394466 0.413301 0.586699 0.797767 0.202233 0.605534 0.394466 0.605534 0.394466 0.413301 0.586699 0.605534 0.394466 0.413301 0.586699 0.413301 0.586699 0.221068 0.778932 0.961165 0.038835 0.768932 0.231068 0.768932 0.231068 0.576699 0.423301 0.768932 0.231068 0.576699 0.423301 0.576699 0.423301 0.384466 0.615534 0.768932 0.231068 0.576699 0.423301 0.576699 0.423301 0.384466 0.615534 0.576699 0.423301 0.384466 0.615534 0.384466 0.615534 0.192233 0.807767 0.797767 0.202233 0.605534 0.394466 0.605534 0.394466 0.413301 0.586699 0.605534 0.394466 0.413301 0.586699 0.413301 0.586699 0.221068 0.778932 0.605534 0.394466 0.413301 0.586699 0.413301 0.586699 0.221068 0.778932 0.413301 0.586699 0.221068 0.778932 0.221068 0.778932 0.028835 0.971165 0.768932 0.231068 0.576699 0.423301 0.576699 0.423301 0.384466 0.615534 0.576699 0.423301 0.384466 0.615534 0.384466 0.615534 0.192233 0.807767 0.576699 0.423301 0.384466 0.615534 0.384466 0.615534 0.192233 0.807767 0.384466 0.615534 0.192233 0.807767 0.192233 0.807767 0.0 1.0</probabilities>
		</cpt>
		<decision id="T18C">
			<state id="Check" />
			<state id="Uncheck" />
		</decision>
		<cpt id="T18S">
			<state id="State0" />
			<state id="State1" />
			<probabilities>0.5 0.5</probabilities>
		</cpt>
		<cpt id="W22S">
			<state id="State0" />
			<state id="State1" />
			<probabilities>0.5 0.5</probabilities>
		</cpt>
		<decision id="W22C">
			<state id="Check" />
			<state id="Uncheck" />
		</decision>
		<cpt id="W12S">
			<state id="State0" />
			<state id="State1" />
			<probabilities>0.5 0.5</probabilities>
		</cpt>
		<decision id="W12C">
			<state id="Check" />
			<state id="Uncheck" />
		</decision>
		<cpt id="W12">
			<state id="True" />
			<state id="False" />
			<parents>W12C W12S T12 S13 W11</parents>
			<probabilities>0.99 0.01 0.751446 0.248554 0.751446 0.248554 0.512892 0.487108 0.751446 0.248554 0.512892 0.487108 0.512892 0.487108 0.274337 0.725663 0.954217 0.045783 0.715663 0.284337 0.715663 0.284337 0.477108 0.522892 0.715663 0.284337 0.477108 0.522892 0.477108 0.522892 0.238554 0.761446 0.751446 0.248554 0.512892 0.487108 0.512892 0.487108 0.274337 0.725663 0.512892 0.487108 0.274337 0.725663 0.274337 0.725663 0.035783 0.964217 0.715663 0.284337 0.477108 0.522892 0.477108 0.522892 0.238554 0.761446 0.477108 0.522892 0.238554 0.761446 0.238554 0.761446 0.0 1.0</probabilities>
		</cpt>
		<decision id="W16C">
			<state id="Check" />
			<state id="Uncheck" />
		</decision>
		<cpt id="W16S">
			<state id="State0" />
			<state id="State1" />
			<probabilities>0.5 0.5</probabilities>
		</cpt>
		<cpt id="W16">
			<state id="True" />
			<state id="False" />
			<parents>W16C W16S O12 W13</parents>
			<probabilities>0.99 0.01 0.675714 0.324286 0.675714 0.324286 0.361429 0.638571 0.942857 0.057143 0.628571 0.371429 0.628571 0.371429 0.314286 0.685714 0.675714 0.324286 0.361429 0.638571 0.361429 0.638571 0.047143 0.952857 0.628571 0.371429 0.314286 0.685714 0.314286 0.685714 0.0 1.0</probabilities>
		</cpt>
		<decision id="SS16C">
			<state id="Check" />
			<state id="Uncheck" />
		</decision>
		<cpt id="SS16S">
			<state id="State0" />
			<state id="State1" />
			<probabilities>0.5 0.5</probabilities>
		</cpt>
		<cpt id="R32S">
			<state id="State0" />
			<state id="State1" />
			<probabilities>0.5 0.5</probabilities>
		</cpt>
		<decision id="R32C">
			<state id="Check" />
			<state id="Uncheck" />
		</decision>
		<decision id="R29C">
			<state id="Check" />
			<state id="Uncheck" />
		</decision>
		<cpt id="R29S">
			<state id="State0" />
			<state id="State1" />
			<probabilities>0.5 0.5</probabilities>
		</cpt>
		<cpt id="R29">
			<state id="True" />
			<state id="False" />
			<parents>R29C R29S O35 S33 R25</parents>
			<probabilities>0.99 0.01 0.654407 0.345593 0.654407 0.345593 0.318814 0.681186 0.855763 0.144237 0.520169 0.479831 0.520169 0.479831 0.184576 0.815424 0.939661 0.060339 0.604068 0.395932 0.604068 0.395932 0.268475 0.731525 0.805424 0.194576 0.469831 0.530169 0.469831 0.530169 0.134237 0.865763 0.855763 0.144237 0.520169 0.479831 0.520169 0.479831 0.184576 0.815424 0.721525 0.278475 0.385932 0.614068 0.385932 0.614068 0.050339 0.949661 0.805424 0.194576 0.469831 0.530169 0.469831 0.530169 0.134237 0.865763 0.671186 0.328814 0.335593 0.664407 0.335593 0.664407 0.0 1.0</probabilities>
		</cpt>
		<cpt id="R32">
			<state id="True" />
			<state id="False" />
			<parents>R32C R32S R26 R29 R23 R24 R14 S32 O22 O34</parents>
